479 64
5eb63bdd-7631-11e4-a3cb-005056011aef 0.10403261 -0.7438373 -0.22161572 0.830343 -0.73796487 -0.92760104 -0.3677706 -0.37999365 -0.24320325 -0.012311639 -0.08071146 0.7577217 -0.23128116 0.027503556 -0.4852225 -0.21639639 0.25395367 -0.28771052 0.12023029 -0.035838258 -0.026815278 0.0085103065 0.10271991 0.03974298 -0.15088592 0.37251452 0.52424514 -0.14644195 -0.22346808 0.49987537 -0.40663466 0.41391248 -0.19497748 1.008667 -0.6245894 0.22190583 -0.38850605 0.1057861 0.13130872 -0.053069573 0.47305325 -0.61867785 -0.12490859 -0.080785625 0.6281831 0.9176513 -0.3820267 0.19458114 -0.12783167 -0.12510148 -1.008951 0.38531333 -0.22836493 0.5323697 0.0042824135 -0.42267108 -0.6273071 -0.66977453 -0.023877261 -0.36663806 -0.5352574 -0.69719326 -0.70723313 0.011935048
5eb722d8-7631-11e4-a3cb-005056011aef -0.27945688 0.20455854 0.52141315 -0.057492983 0.27085403 1.0183523 -0.17356248 0.07423681 -0.20765321 -0.18186998 -0.19915003 0.5032992 0.07078499 0.36510777 0.2500293 -0.5551431 0.24521999 -0.20555648 -0.42147374 -0.5818246 -0.28420627 0.2493588 -0.83384794 0.085586384 0.7046268 0.5266591 1.0229071 0.33221412 -0.5016846 -0.0046066665 0.14990976 -0.12184559 -1.1270946 0.73232543 -0.22057846 -0.52925557 0.12774503 0.07147954 -0.10793021 -0.63386613 0.045529973 -0.22430502 0.49852902 -0.30393675 0.22093251 -0.6985103 -0.8642534 0.8879796 0.849665 0.22480267 -0.73609716 0.06703276 -0.66641253 0.10775296 0.024339749 0.21037929 0.5131784 -0.06873716 0.11518224 0.5802185 -0.7968055 -0.7333484 -0.042787675 -0.7021321
15de6921-4af2-4428-ae57-48dd87dcc9d2 -0.23963292 0.12383234 -0.7152073 0.4661717 -0.26563045 -0.18070875 -0.4441167 -0.7524788 0.1271313 0.017297711 -0.19128376 0.9207177 0.061533887 -0.32989678 0.31256425 -0.29432803 1.1435099 0.1873785 -0.049441423 -0.12555961 0.124341935 0.39226183 -0.23990025 0.5030639 0.26975664 -0.19070068 -0.009646016 0.7427246 -0.86466396 -0.38439387 -1.1808324 -0.3384926 -0.4045106 -0.27264574 0.2932833 -0.4975473 -0.76084197 0.5298145 0.18314275 -0.59650064 0.25973967 -0.6707077 -0.5898556 0.5683102 -0.50651383 -0.1286648 -0.07444884 0.2620702 1.37628 -0.36926988 -0.22104642 -0.09474963 -0.6258382 -0.45248714 0.27006465 0.3245537 -0.5193773 -0.16106473 -0.44898778 -1.151669 -0.43607664 -0.40911436 0.42058015 0.4395747
863186d6-1e04-4e15-b906-63acdbc0c9bb -0.48756656 -0.078300215 -0.23222263 0.14892669 0.5161529 -1.0424675 0.50825393 -0.28808457 -0.38204703 -0.095179975 -0.3786836 0.24527337 -0.3176355 -0.4838965 -0.61816114 0.0030665563 -0.24922436 -0.35418773 -0.8424913 -0.19965988 -0.47596982 0.78212464 -0.095748276 0.5922003 -1.0614709 0.8417606 0.59532577 -0.22131412 -0.6271552 0.088227585 -0.07154756 0.013895241 -1.5052232 -1.371137 0.10149651 0.47318313 0.021400271 -0.2919022 0.23712794 -0.026702004 -0.6833446 -0.74642336 -0.6208142 -0.5502921 -0.18729357 -0.16069598 -0.8760772 -0.43108246 -0.58945125 -0.3737577 -0.48971525 0.1905779 -0.9939517 -0.070860595 1.4736081 0.63787735 0.46802947 -0.8753402 -0.08730389 0.050251536 -0.36566004 -0.32702672 0.791478 -0.008177425
5f4c7b0f-7631-11e4-a3cb-005056011aef -0.03783024 -0.34629372 -0.38897035 0.4473434 -0.15505491 0.1528889 -0.5221685 0.6673339 -0.8891267 -0.33561036 1.0867271 -0.2997269 0.33533964 -0.21120906 0.300721 -0.8021162 1.2867327 0.3657498 -0.51861376 0.24835402 -0.041534305 -0.04250789 0.7500849 -0.68431437 0.07375901 0.062820725 0.18835494 0.5651309 -0.7671706 0.45371485 0.10024486 -0.51813704 -1.0532863 -0.2489174 -0.719371 -0.15504718 -0.4268633 0.12500107 -0.29508394 0.24697441 -0.800071 -0.25964534 -1.2016801 0.96862006 0.044838257 0.6061146 -0.4926969 0.8502412 -0.08115032 0.6184258 -0.28423584 -0.47368133 0.23425625 -0.23933885 -0.022882016 0.057599634 0.114034645 -1.4597905 -0.2571917 0.60171515 -0.53768265 0.5128557 0.8473521 0.15405662
5eb7113e-7631-11e4-a3cb-005056011aef -0.10563191 -0.58282775 0.118909694 0.18781663 0.63793784 -0.12652442 1.1405467 0.16427715 0.7203863 -0.98245895 -0.9149003 -0.8430166 -0.32242343 0.38574263 -0.73117435 -0.10858107 0.4439729 -0.70530427 -0.6557911 0.18226953 0.14428331 -0.10329225 -0.5251945 -1.2952877 0.48498225 -0.073953934 0.5877519 0.38182133 0.39348137 -1.0748962 -0.51134753 0.02302404 0.31094784 -0.15357384 1.1057984 -0.7738876 -0.6693417 -0.35908133 -0.70691615 0.54905576 -0.1818188 -0.7854068 -0.74081665 1.0124904 0.44925022 -0.2886144 -2.2617705 0.71039855 -0.3556894 0.15121725 -0.5577758 0.4984947 -0.58107066 -0.47015628 0.29745042 0.2098096 -0.4428578 -0.67821807 -1.271104 -0.45103425 -0.44284648 0.080528185 -0.75776213 0.86694777
8f7a618d-ee2a-48a0-bb82-ea3bd34880da 0.06009988 0.23081808 -0.613964 0.11610532 -0.51184225 -0.4873017 1.0928975 -0.0018954211 0.10393492 0.5004092 0.50584227 1.5787643 -0.60657483 0.36478025 0.650285 -0.052423988 -0.22603005 0.16228324 -0.67080265 -1.2783797 0.11175241 0.35169655 -0.09908604 0.53120714 -0.3835264 1.9998963 0.08152545 -0.6513075 -0.4232199 -1.325603 -0.8544066 -0.13702996 0.19038154 -0.5165096 -0.2660983 -2.0073402 0.48513982 -0.38297474 -0.79259646 0.22055954 -1.7683333 0.19215886 -1.141652 -0.05213716 1.0011529 0.8847765 -0.6271294 0.2694953 0.7521884 0.03449971 -0.8825445 0.2645083 -0.5190648 0.36171773 0.6852736 -0.08455481 -0.7663936 -0.37221768 0.03997399 0.4356277 0.5716987 -0.5586992 -0.047402646 -0.14277855
5f58d8c7-7631-11e4-a3cb-005056011aef 1.5287813 0.06840596 0.662167 -0.3677285 -0.7990079 -0.31774995 -0.05576239 -0.24283671 -0.19037762 -0.4098541 0.9667022 -0.5105932 -0.87630385 0.42068312 0.015822008 -0.9363054 0.43868327 -0.6499634 -0.085177466 -0.49832663 -0.35783526 -1.0596923 0.31525066 0.16164646 0.28598332 0.5588255 0.55034757 -0.15000312 -1.5545874 0.17881854 -0.3893233 -0.3331382 -0.25741717 1.2190057 1.2036197 -0.28228155 -0.5410347 -0.12505627 -0.25885397 -0.48331758 -1.1297262 0.08662861 -1.2387798 0.43166047 -0.20941804 -0.084825255 -0.8944934 -0.5812131 0.047861308 -1.1882194 -0.27407253 0.34002215 -1.4426515 0.7492121 0.22907121 -0.19657685 0.10702773 -0.12598568 -1.0262045 -0.33886817 -1.0387224 -0.5150762 0.19925947 1.2455945
5f572e53-7631-11e4-a3cb-005056011aef 0.78781384 -1.4876993 0.40342104 -0.5486744 0.66888165 -0.5396231 -0.0800041 -0.4358898 0.36201385 0.01579957 0.7700033 0.82367843 0.07046397 0.23751268 -0.61543 -0.50586015 -0.31640235 -0.62764156 -0.9523767 0.6861261 -0.208372 -0.8642047 -0.7441429 -0.33897653 -0.6605005 -0.69112873 0.17590798 0.16547027 0.80980235 -0.72008395 -1.1046466 -0.006676024 -0.21513008 -0.666152 -1.0795101 0.6247336 0.8412583 0.49756575 -0.14378132 -0.083470605 -0.57800525 0.77714384 -0.373227 -0.36963695 0.040213346 0.09376283 0.47631294 1.2848811 0.6127997 -0.023015255 -0.5716175 1.5570976 -0.5318753 0.52776396 0.8429671 -0.5197141 0.5696544 -0.11029791 -0.5453511 0.955126 -0.5131468 -1.0423126 1.7621534 1.6050031
5eb7e1ad-7631-11e4-a3cb-005056011aef 0.0959872 -0.77431774 0.9263522 1.6144226 0.51179093 -0.68869585 -0.3153141 1.5458617 -0.47161517 -0.9395754 0.18533146 0.82011443 0.050850805 0.79906416 0.2741651 -1.1561671 0.7474169 -0.48486647 0.50620824 -0.07838115 -0.6268591 0.36719543 -0.48290184 -0.41129574 -0.45182836 0.5278532 -0.85673964 0.018229216 -0.21478398 -0.9011405 -0.81538403 0.5963292 -1.0683662 -0.11224106 0.35165828 0.026457882 -0.16882892 1.0407271 -0.6528912 -0.23906025 -0.6350702 -0.35473424 -0.12892877 -0.7645335 -0.8440826 -0.09861741 -0.15623152 0.52134883 0.9038422 0.17060445 -1.8235241 -1.1935692 -1.4431033 -0.7476657 0.5079243 -0.63828963 -1.5313953 0.45168972 0.028532567 0.740257 0.067823894 -0.3649799 -0.077106535 1.3115114
5ec3131e-7631-11e4-a3cb-005056011aef -0.022525264 -0.53713834 -0.107691675 0.1693904 0.23133978 -0.9735698 0.07722284 0.70466495 0.10911868 0.05012451 0.03208073 0.33424142 -0.41065097 -1.9134376 -0.34940365 0.23720373 -0.5463446 -0.60269284 -0.5758536 -1.2736076 0.7437858 -0.0664584 0.13560033 -0.7357763 0.74529916 -0.028334176 -0.6302116 1.2354146 -0.6448993 -0.06698083 0.11180995 0.8539177 -1.2558625 0.57594895 0.0015851887 0.21578644 0.8069589 0.2162034 0.14928924 -1.3742737 -0.5787619 -0.5060314 -0.83229566 1.3211539 1.2454528 -0.4566788 -0.17573212 1.1364238 -0.5048018 0.7433772 0.75139356 0.99720055 -0.54010534 0.064171135 0.49902683 -0.27152133 -0.3953398 0.3051419 1.2053177 -0.23334898 -1.4883741 0.6337621 1.2531397 1.1246485
4414c6ef-d68c-4db2-9538-aac7518b2e6c -0.13126053 -1.3108768 -0.6175649 0.17406356 -0.33300382 -0.68382925 0.4744746 -0.15825094 0.48703384 -1.7595544 -0.23278832 0.38690084 0.092063 -0.0317921 -0.6733362 0.081135936 0.6355322 0.050757404 -1.1675712 0.91600037 -0.63529223 0.60006714 -0.2546806 0.47882873 -0.20864244 -0.088145524 0.24076611 0.8816073 -0.6295688 0.45159915 -0.16938908 -0.46404758 -0.4889734 1.4346161 0.673775 -0.3604589 1.2282369 -0.5540444 -0.53536797 -0.026654013 -1.8525956 0.19276966 -0.6371331 -0.6004229 -0.08399332 -0.98557717 0.074753106 1.3352305 -0.7856172 0.08364946 1.2474475 -0.800686 -0.5405151 -0.10660581 0.67956275 -0.6953037 -0.81815183 -1.36751 -0.9033429 0.67165565 -0.18146731 -0.03564076 -0.25589865 0.37911454
5eb7c7b2-7631-11e4-a3cb-005056011aef -0.36791402 0.32642397 0.43878818 1.0556396 -0.5370217 0.16351716 0.09673812 -2.200184 0.6619769 -0.11869393 0.21432981 -0.09853446 0.9063477 0.25506347 -0.3783557 0.48176774 1.4346442 -0.8321868 -0.7003032 0.50659764 0.48502275 -0.05035427 1.1833535 -0.70345277 -1.3148906 0.6515559 0.7760447 -0.8403999 -0.26698387 0.19613217 -1.0253057 -0.75919026 -1.0070031 -0.23129502 0.21181265 -0.21129684 -0.1158804 -1.4737215 -0.2683906 0.51545143 0.35060954 -0.03689182 0.17584905 0.46207005 1.4929984 -0.76327085 -0.8734043 0.4418958 1.0265993 1.0398271 0.13873416 -0.6499981 -1.2810158 -0.7863097 0.12960626 -0.49309465 -0.048426952 -0.34793934 -1.0106835 1.4003423 0.41789404 0.02282444 -0.34634355 1.27993
193343fa-0edb-45d9-919f-9a4087c32910 0.1855363 -0.49336058 1.4911711 0.10152761 0.39205033 0.25693205 0.2523742 0.69181734 0.85218734 0.39260215 0.9120779 1.1108793 -1.0471303 0.4917469 -1.881626 1.7442327 0.26005566 0.26586533 -0.6689019 0.32699 0.91130996 -0.16214639 0.7254339 -1.0436865 0.2424055 1.8600638 0.2731436 -0.54826283 -1.2795736 0.06958371 -0.83451647 0.9662079 -1.4042609 -0.23029763 0.6547933 -1.0826763 0.7003062 -0.04838157 -0.98258936 -1.1287872 0.37073934 -0.34197882 -0.822612 0.13000779 -1.2190334 0.09038531 -0.65357035 -0.49286753 -0.42023835 1.0876703 -0.05495507 0.27496302 -0.07289751 0.0942298 1.0914062 -0.79103845 -0.68217 -0.8274509 0.04564444 -1.1852858 -0.71881413 -0.15163773 1.4966584 0.18242721
fa748fae-3de4-4266-ae85-0797ada3f40c 0.27643746 -0.057157367 -2.1555004 0.6070493 1.2992656 -0.16212665 0.17541718 0.5895295 3.9162264 0.5842092 1.8458673 -1.1406767 -2.3363853 0.0017580844 0.20329249 -3.3660307 1.4455549 0.639427 -4.553079 0.9594554 -2.0677445 3.1767888 -0.5554442 1.8195524 -0.7246272 -2.0418212 1.7919152 0.650447 -5.2859697 -0.68560064 0.3017262 -2.6081486 0.95989984 2.1976795 0.6478178 0.5476706 -4.593729 0.12403692 -0.9395435 -4.992438 0.44936743 -0.05360673 -1.7059861 -0.20547257 -1.951961 1.5176482 -1.4428929 -0.14985304 -0.60720396 0.32187495 -0.7863081 3.104341 -0.04229994 0.27563244 2.1587062 0.20812343 -2.9955046 1.5256716 1.3912994 3.0909371 -1.0027044 -1.1644174 -1.9468368 -0.30226114
f790dc71-386e-4440-9689-31f94e7ac64d 0.7376327 -0.27481624 -0.89892596 -0.45944726 -3.5769632 -1.8449485 0.6350785 -0.071337014 0.92136884 1.3010911 -1.8818394 1.3492218 -3.4444902 0.39099833 0.32878596 -1.8076196 3.3289115 -1.2192311 2.801058 -1.4217823 -1.8590974 -1.5947075 -0.07324097 2.2422578 -1.3460386 1.0319088 4.036395 0.39352065 -0.45526686 -4.0697184 1.9844562 1.9229695 -0.4839479 -1.0113701 -0.56163275 -0.49807295 -0.7609773 0.8345705 0.09135555 1.4153732 2.4720438 1.4128666 -1.9446952 0.124970905 1.551637 -0.50198984 -3.3017142 -1.4073656 1.511086 0.024563642 1.0012193 -2.4520712 -1.3843427 -3.7574992 2.4610868 1.2088443 1.119105 0.29305133 1.7406569 2.2486737 -3.712697 -1.6346714 0.31656927 1.4443182
6a2bf66e-2313-4204-afd5-9940de5e1d66 -2.4132383 -4.236514 -1.6041675 -2.9629314 0.07424597 -0.37036946 -2.836784 -0.42514175 -4.074457 0.4022792 -0.8971452 -1.3122929 0.20849672 4.658371 1.5363036 -0.68722266 3.0593295 -0.64737105 0.24738163 -0.95442957 0.68796974 1.5776368 -1.2595437 1.4092548 1.8285122 1.7114797 2.9465253 -3.5948489 -4.4911313 1.8578398 -1.9956945 -3.4299333 -1.1638505 -2.7060387 0.08338245 -3.2824504 -0.09413648 -1.1783341 1.9072623 0.88181454 -0.4005145 0.1228562 -2.3109524 -1.8110962 2.8985662 1.2817211 -1.1491181 0.96949655 0.6919327 0.79296756 0.045406178 1.9618683 -1.7190852 0.6020531 2.3371441 0.6176052 -1.2751186 2.042666 -2.436439 -2.8880553 -2.5004385 -1.255874 -0.73611087 0.52365285
632d1ae0-0340-4a23-87b0-595bb596e5f4 0.6897654 -6.320937 -0.017851997 -0.55784047 0.15596548 -0.75772583 -0.8925041 -3.1954222 -0.5867928 -1.5406666 -0.8889898 -2.1695962 -2.739908 3.0147321 2.4824526 -0.0042320536 1.9890913 -1.252233 1.0250393 -1.7592448 0.8796207 2.8225057 -1.5580838 2.8098 4.1603947 0.75024015 0.36603191 -1.088495 -3.268851 1.7558677 -2.1940153 -1.1768397 -1.4733034 -1.7099386 -1.4867979 0.6130289 0.8403133 -0.74425304 1.2225977 -2.0246031 -0.9205116 0.23861293 -2.0368772 0.7499025 1.877295 -0.51741284 -2.4742277 -0.16182987 1.3663807 -0.11122955 -4.013461 1.8123744 -1.4820628 -1.4851266 1.2484046 -0.090394005 -1.8231709 -2.4583035 -1.8970568 -2.8641648 -1.167141 1.207753 -1.1772016 -1.5136838
86ee00c3-9714-45cd-af4c-4c5a5391b656 -1.0659935 0.4645654 1.927638 0.30827338 -0.43258336 -1.147451 0.9401583 0.6520132 0.62059987 0.1798911 -0.12864919 1.1131892 -0.76249593 0.5003947 -0.83037627 0.5143562 0.72652185 0.49821737 -0.6563832 -0.19727214 -0.102615245 0.7587585 0.4291609 -1.7054887 -2.5098898 0.015984403 0.013582831 1.8403116 0.09494311 1.5554707 -1.7375137 1.0514116 0.5722209 1.153795 0.27996746 -1.4400604 0.27397314 0.09031373 -0.13396789 0.7542346 -1.9633217 -1.6288633 0.1102992 2.1056304 0.6399377 -0.3493511 -0.31635463 -1.5926956 0.5610011 1.4668987 1.4454427 0.67122424 -2.1362786 -0.022608472 0.97503227 0.20201986 0.47692937 0.7810081 -1.4669211 0.4988835 -0.48840445 -0.22934486 1.0468402 0.8690543
bee455d5-5a4f-440a-88be-eb65ae8fde7d 1.0038376 -1.3225441 2.4793575 -0.16222306 0.19359629 1.0913764 1.0521129 -0.7969439 1.8168337 0.59773153 -0.016587662 1.2310941 -0.6012056 -0.085951455 -0.79044753 -0.16356117 0.18484376 0.6362387 -0.9059846 0.4353405 2.8638384 0.4459974 -0.5075958 2.758541 -0.3279467 2.2538786 1.8299515 0.28902924 -1.4128635 2.1340883 0.08861361 -0.8866288 -0.31956047 2.5904415 0.9517374 1.4757988 -1.8858697 -0.31929135 0.33508977 0.50200856 -0.48459378 -1.1691171 -1.007833 0.97782284 2.2830377 0.49564546 2.9583302 -1.125039 2.5455759 -1.4807875 0.74342936 1.4942824 -1.1482407 0.06509804 0.8933867 -2.4862547 1.3819689 -2.0017776 -0.6953964 1.4199461 1.5115424 0.81393987 1.4755752 0.34094173
e1067450-7d13-45ff-ada4-5e3dd4025fb7 0.5567217 2.8237412 -1.6017783 0.025574442 0.29146487 0.19147801 -0.29210302 2.369771 0.19580097 -1.1374489 -0.06965629 4.068806 1.430518 -0.32982296 -0.46284938 -0.047696467 1.8366598 2.0026097 4.746437 -2.3434489 -0.0007211254 0.7103496 1.2503068 0.8925756 0.27901652 2.5023592 0.35455236 0.77246773 -0.378005 0.20550607 0.5313137 0.0868391 -0.4782008 1.0913775 2.62938 1.3463933 -0.19937606 -2.867818 -1.067132 -1.5779952 0.95093995 -1.3231213 -1.5112258 -0.9233247 2.3558135 -1.0895815 -2.2802222 -1.1238322 2.1557922 0.6296313 -0.6410425 2.05479 0.96399593 -1.282782 2.2444806 -0.07185463 -2.6192913 -0.68210554 -1.972126 2.451172 0.27886498 2.709381 -1.5726736 0.20220824
d38bafd3-2c46-4be2-b50b-50c2ba7d30ed -1.5706304 -0.2762824 0.8180177 -1.186131 -1.6486316 0.6171827 -0.97409254 -0.18120514 1.1114628 0.96077216 1.2931113 0.24870019 -1.5546068 0.53353083 1.5410668 -1.7313817 0.14956947 -0.7394133 0.93898106 0.5269921 2.066095 -2.216485 -0.41700968 -0.8113232 0.007512794 3.9578936 0.32239687 -1.1383572 -2.0443177 0.8642313 2.0894363 2.848382 -1.9562979 -2.2967198 2.6964486 -0.8262908 -3.1205652 0.7395789 -0.59605694 1.0539136 0.012294874 -1.522755 0.01206581 -3.1902966 1.9840267 -1.46151 0.35228178 2.0815296 -0.8410015 -2.522139 -0.15881045 -0.48175856 -0.76068366 1.2868639 1.7199864 0.12716433 -1.7659429 -1.0264981 -1.0821445 -0.7120292 1.196946 2.5559735 -0.63193095 1.2530606
5f5cd007-7631-11e4-a3cb-005056011aef 0.0556203 -0.15137042 -0.19914827 -0.6043327 0.8822327 0.21875545 -0.38856682 0.1301273 0.108780846 -1.4516648 0.7743005 1.2311454 -0.55751187 -0.90303135 -0.3150676 -1.6060065 -0.046745375 0.36690202 -0.71534353 0.87289256 -0.5695581 -0.76286554 0.43433753 -0.76446825 -0.54663116 -0.1362052 1.0112089 -1.0176876 0.5409957 -0.79277724 -0.50926745 0.6272384 -1.7293087 0.15303916 0.57603735 -0.46966305 -0.52496165 -0.73175 -0.032864053 0.72943264 0.40555033 -0.8830971 -0.31972298 0.76373917 0.18931392 -0.57781863 0.2998031 -0.4081618 0.41020212 0.98445153 -0.6751442 -0.37310228 -0.13098104 1.0951993 0.63767666 -0.66216505 0.21205191 -1.1442392 1.2135513 -0.68683505 0.83030325 -0.38261473 0.4002824 1.2221714
e2048d9b-fae4-45fd-810c-16e5fdb866cb 0.02185752 0.33655003 -0.5202918 -0.35851052 0.098701924 0.46053752 2.0506601 0.7979348 1.047029 -1.6519532 0.54970473 -0.7446054 -0.13206957 -0.7862522 -1.0928099 -0.8985801 0.05310069 -0.15196158 -0.8651198 -0.5503343 -0.96763146 0.7187873 -0.5315875 -0.3740003 -0.5168119 -0.45883635 -0.75803953 -1.8619088 -1.0921599 0.46995866 0.7811707 0.84103423 -0.5215722 -0.050301746 -0.60144615 -0.6271244 1.0333117 0.651814 0.18333252 -1.4548858 -0.08652056 0.29621792 1.1269401 -0.19993208 0.9933856 1.4554478 1.1801659 0.91574055 0.5912089 -0.116421014 0.51857865 0.12903842 -2.2350843 1.9548377 0.8459744 -1.1810192 -0.6565823 -2.056995 -0.46569297 0.08045268 0.30449358 -0.33333242 1.1009499 1.4263165
7ae28e91-b918-4b9a-898c-fcdee95a83d0 1.2926036 -2.6177557 0.9532193 -0.009285781 -2.0345187 1.1048801 -1.2393306 2.748495 1.3447963 -2.7329566 -2.6129963 2.596305 -0.6571844 0.18695724 -2.5266912 -1.3173529 2.1870978 -1.3584815 -0.32239288 -0.88353485 2.2858744 2.1427052 2.6421273 1.329034 0.40385455 0.47136974 -1.3698616 -1.5424918 1.6887978 1.725085 1.2977659 -0.8239442 -0.7337816 -0.26082355 0.16202591 -2.4531536 -4.5934935 -1.416114 0.034920853 0.8900882 -2.0778337 0.61879045 1.3389112 -1.9048947 -2.5700727 1.1986778 0.43740222 2.8580215 -0.66507876 -0.4102755 1.9903492 2.20198 -1.9524716 -4.067061 1.1986144 -0.63926744 2.380466 -1.4142888 0.63758004 -0.60046387 -2.0269768 -0.50493705 0.5244204 -1.1779208
4e277dc9-faeb-41cc-b76e-2dc7cb0b6e2f 0.09137075 0.9612821 -1.3772031 1.0069702 0.36741135 -0.37922382 0.030694846 0.8537999 0.26093188 -0.90211105 -0.24831644 0.16506022 1.4138107 0.2056695 -1.8675277 0.32982615 -1.2752324 1.4754119 0.22630906 1.1391028 -0.7618203 -0.60329497 0.7544736 -1.1820859 1.2802714 1.6448328 0.5060319 0.8940746 1.471931 -1.0375051 0.59193695 -0.6548407 -2.7285948 0.83646005 -0.43517014 -0.416191 0.4933155 1.0764431 0.6822835 0.88754267 -0.29558715 0.4277003 -0.75256294 0.01209491 -1.0093545 -0.08761149 -0.84600675 -0.28303325 0.092299886 -0.44811141 -1.2346871 -0.5330924 -0.23799182 -0.35871693 -0.8164553 -0.91630626 0.97765905 -0.6247011 -2.163115 0.33534965 -0.2857031 -2.3614936 0.7001351 0.6079006
e57daef4-5eb5-431c-b0ad-14119ab0355f -2.6056178 -0.8375197 -0.8212112 2.4115093 0.6308951 1.337378 1.3016284 -0.56524235 2.943108 1.1296264 -0.19153921 -0.57439506 -1.6985517 1.4194747 1.0827873 -0.7595054 2.182576 0.5100504 -1.387732 1.835436 0.087314256 -1.6647453 0.26413104 -1.7050238 3.5153158 2.8721201 -1.2108634 0.6584285 -3.6125402 0.75559735 1.695552 1.1444572 -1.7546595 -0.8053436 2.804307 -0.07688573 -3.6563735 0.69874614 0.07436148 2.856716 -0.60904676 1.3811967 0.30016598 -1.2356099 4.1890388 1.1151255 -0.7949232 1.1054322 0.26004735 -3.5172637 -0.93762994 -0.62548363 2.0234783 1.5188731 2.9783428 1.8619388 1.1559324 -0.93146396 0.051788 -0.111237794 -0.16156942 1.3057442 -0.8672392 -1.0944023
f29ca4a8-8ed9-4b0f-bb6a-11e373095dee 2.594554 -4.058293 -1.6254632 -1.6857513 0.7157327 -2.476861 -1.9126287 -2.1868958 -2.6603482 -2.236908 -2.34768 -0.08369252 -3.1225681 0.51333964 2.1522605 -1.0966874 0.17159177 2.7987463 1.9853456 -3.079645 0.31046212 3.265868 -1.7922361 -0.4136998 -0.0020286718 0.61438584 1.5236477 -2.455114 -5.476306 -0.19257453 -2.4657102 -2.9361224 0.630583 -0.5256731 1.0233088 1.5024201 -0.34040147 1.2304295 0.15819582 0.36750963 -2.9877956 0.6704019 -0.209356 4.7571383 3.8746831 -0.28368682 -0.58855885 2.1941626 1.7434454 0.3452208 -1.9624928 2.1410036 -1.8653039 -1.4845173 2.270907 1.6419222 -2.0621452 2.6294792 -1.1520141 0.050180197 -0.30433983 -3.9861972 1.0025787 -3.1298566
f4f2c99e-6d0a-4f2f-b3d0-ff2d00e33887 2.7523541 -4.80456 -2.7645435 -0.7101383 3.359875 -0.74801046 -3.694358 -0.6751834 -0.36837924 0.084748305 -1.5708508 -0.24577631 -1.4068542 1.1625377 0.6929311 -1.0991303 -0.055827856 0.3451538 0.7504746 -2.2953327 -2.1673443 2.1393127 -0.51170677 0.2577566 0.7704326 0.72459006 0.367973 -3.8216076 -2.423735 2.2906103 -2.0246031 -2.3796892 0.2855973 -2.3014052 -1.3212578 3.1906164 2.7996974 -2.7516594 -0.2767218 -2.3729753 -2.501325 0.19613142 -2.7130253 2.279676 2.5645695 -1.5280874 -0.49929667 0.7288513 4.749761 3.1104832 -2.2220278 1.0160098 -2.7952268 0.34001333 0.6513335 0.045524057 -3.1689746 -0.1913647 -0.84048665 -2.2298918 -2.211435 -1.6189 -0.122655414 -0.5769367
cde068da-883e-42e1-a54d-802ebb7bb57a -0.7315057 2.0294173 -0.5607841 -0.6795209 -0.06748379 1.4523227 0.7921543 -1.5472847 1.306613 0.8043667 -0.8224361 2.7838013 0.666953 2.5061088 2.8297937 -3.7415159 0.98805666 -0.6996202 -2.8708026 -3.174127 2.1896036 -2.5050366 0.60260516 1.5162479 -2.7050602 -0.5766502 -0.7088523 2.0978062 1.5498567 2.4768455 -1.6418284 -0.19967848 -0.13250992 3.237732 -1.2913591 2.745476 -2.3760047 1.8371692 1.4328645 1.3778362 -4.2986774 1.4887806 -1.5567838 -0.8444145 2.0807757 -1.7683474 -3.4399827 0.31917828 -1.2762207 -2.1370168 -1.9921467 0.18467975 -1.9358817 -1.0533712 1.3198279 -1.0947974 -1.6858157 -1.7704926 2.5295475 -3.452705 0.38744035 3.282169 -1.8631458 -1.1516576
5491c439-1c83-4044-80d3-32cc3613b739 1.0095103 0.032996517 2.0102541 2.6443207 1.5628211 3.7620604 0.6313779 -0.46892598 1.040846 -0.5939306 -2.682376 3.0635834 0.62504625 -2.099748 -4.60941 -1.1000626 1.9822558 -0.9250432 -3.516591 0.05445374 3.7892694 -0.7014705 -1.1446176 1.2432183 -1.1270653 -1.8044567 -0.06624536 -1.0572449 1.3118392 1.7635307 -0.8851376 -0.9441571 -0.7996259 0.2624965 -0.71134967 1.2913207 2.2594295 1.7960064 3.4523904 -2.2188506 -1.1264273 0.7875112 -3.1254704 2.6015015 0.79711956 0.32606688 -2.5165799 -1.7441995 -0.3193132 -1.449021 -2.3852124 -3.10866 -1.5796864 -1.9909022 1.4994154 -1.6375756 -0.94903535 -1.5618757 2.024094 1.4865884 -1.1307875 1.0038918 -0.29955307 -2.5836718
daca9924-c834-451b-9675-03efb8a3397f -1.1078624 -0.28122693 -1.409059 0.5923272 0.4207128 1.812628 -5.367569 -0.0393371 2.502165 -0.85289454 0.8835294 1.2597208 -0.24859938 -1.1613567 0.5162884 0.24520569 1.8519374 -3.822564 -1.8779103 0.20016538 -0.5961819 0.31657636 -1.7808883 -0.22292039 -2.0071397 -0.14781685 2.0000217 -0.11820467 -2.614596 -1.8848935 -1.2856873 2.2333264 -2.6557178 0.7005367 0.8446238 0.1712325 -3.3070936 0.7806657 -2.270182 -2.4953353 -0.03822483 -1.6364107 -0.9753684 1.3849583 -5.5435596 2.381652 -2.7875652 -0.36344612 -1.1392279 0.010773143 -0.3097673 -0.21603046 -0.13794088 2.4958034 0.007951494 3.4374545 -2.8240654 3.2015307 1.3711053 3.5955718 -4.1335883 3.573844 -2.3956 0.51431596
ad5110e0-fa62-49d3-923f-d50101f12014 0.0578927 0.6958254 0.79328895 0.34160352 0.96572423 -0.6680625 -2.7256851 -0.69704854 4.662207 1.7010087 0.9982829 0.47500277 -0.077220984 0.010615385 -1.0447385 -0.09849897 -0.921914 1.3940088 -3.310261 2.264901 -0.6341061 3.8566167 1.1479949 3.7565517 -2.1558192 -0.014341866 0.4253814 0.94443476 -2.1892715 -2.0898712 -2.3000681 -0.66526896 -1.3851608 0.9298108 3.489059 0.63523173 -3.8622308 -1.183653 -3.7302399 -2.7801318 -1.2140111 0.8241092 -0.20763022 2.6428788 -2.1137478 0.9739397 -2.2562969 2.434722 -2.9133718 1.8443692 -0.51935476 0.15334277 -0.74645585 0.16519603 0.9373512 0.08133485 -1.58966 1.4725078 0.46097514 2.3349104 -3.857999 -0.124638 -2.6019084 -1.1604139
1a1bc147-c02b-4cad-a415-ccbcecec8cbf 2.084551 -0.86167586 0.179598 1.2662601 -2.9339037 0.58519745 1.3280739 0.69468355 -0.5031219 2.5098338 -1.8558513 0.43484107 -2.0775485 -0.86854035 1.5975374 -2.1970477 3.0614564 0.5274405 3.3018062 -2.1662905 0.7669045 -1.6535444 0.18967675 3.7394161 -3.3020766 1.4991342 0.81999934 4.0274477 0.98896575 -3.1379104 -2.5082095 0.88844126 -1.3988236 1.5544105 1.661415 -0.8705646 1.2364658 1.9365733 0.7669574 2.6739113 -1.6277796 0.25984302 -0.1560801 1.2291819 0.20833464 -0.97836787 -2.4271567 -0.48481974 -0.20839642 -0.6001615 -2.4798574 0.31247732 1.8186327 -0.87660944 1.9444882 2.8515124 3.8006976 1.219877 2.8287044 1.8951247 -5.160732 -1.9342175 -4.7947946 2.424717
dabfc6b3-d88c-458f-a9fb-f286b987509b -0.2560727 -1.6039504 0.033119343 -1.2103287 1.6977957 0.6819541 -0.7225881 -0.4680045 0.4767178 -0.5810964 -0.954883 2.0068567 -0.32640606 1.1309506 0.21973816 1.9163742 1.702544 0.61239254 -0.49582708 0.8054759 1.1732116 -2.6899042 -1.242584 -1.5703065 0.7323876 0.29906055 -0.16233885 0.9872442 0.21923235 -0.027932558 1.3809086 -0.38428175 0.13778181 2.0401995 -2.9359324 -2.732694 -1.8319778 1.6636856 -2.0604167 0.15377225 -3.2529905 -2.1587226 0.29335767 0.6097074 1.0733979 2.038429 -0.30133015 1.0870705 0.5318877 1.0326178 0.8540412 -0.7213986 0.3516762 0.39499465 0.0792863 -0.2767563 -0.6245978 1.1669586 0.8446471 -0.08531238 -1.4632723 -0.33680183 0.13333704 3.1869504
8c0c7a20-c4ae-4935-9309-ac4e7da42a62 0.9887794 0.006208747 2.074849 -1.7098588 0.12692943 -1.6284692 0.6284619 0.5718134 1.543819 -0.95695025 0.06410208 1.7915174 0.6314671 -1.2577124 -0.67378926 -0.16112056 0.56032944 0.18758209 -0.15344946 0.2548843 0.61305153 -1.2900741 -0.67161995 0.91099834 -0.32727572 -1.0947993 -0.27599826 2.6924841 -1.9175504 0.13284336 0.028992662 0.39154622 -1.58509 0.84753317 -0.7655188 -1.6829045 -0.97806257 -0.9583578 0.6089059 0.36511138 0.3771362 1.4272636 1.2384131 1.5379429 0.88590056 1.6213876 -2.2450235 1.2481652 -0.010982245 0.3348811 -0.2871238 0.52966446 0.89588904 1.0614594 -0.62440115 1.4259006 0.18689393 -0.9229796 -2.5174453 0.19646728 0.5894763 -0.19276057 0.012611592 -0.9081818
c78d07ca-ba41-41b9-bb6b-10cb0d16fa3a 0.6786738 -0.33725128 0.37955356 1.0187865 -0.54033554 -0.51407 -0.44767448 -1.5172178 1.8574442 0.040788826 2.2920654 1.7625425 1.7366037 -0.3291895 -0.32298028 -1.5749117 -0.09375791 -0.23550612 0.7324937 -1.6593102 -0.77832097 -0.17170273 -0.27582175 0.7555259 -0.12993284 -0.21325146 0.26720196 0.008458553 -0.33505785 0.2977206 1.0481708 1.4453558 -0.6041394 -0.13007098 0.81179047 -0.15389912 1.690776 0.4034099 -0.77201897 -0.4101811 1.2791709 -0.009361632 -0.8411333 1.38471 1.1396226 -0.5742558 0.21859828 1.9582552 -0.78254056 -0.44525543 -0.30279103 0.024890477 -1.0328075 1.625963 -1.1498811 0.36421016 2.1886177 -1.0805756 -0.9935992 -1.0336719 -0.28408068 1.1381397 1.4205114 -0.2888518
7a61b192-8edf-4204-8ead-705e5f115c81 0.009242187 1.5029864 -0.22730519 -0.66521 -0.2580702 -0.0036801766 0.28349742 -0.60815495 1.0521642 -1.3583848 -0.38123545 0.62879246 0.10613735 -0.24661633 -1.2510438 -1.2538016 0.32384887 1.2206324 -1.7348869 1.7130772 1.5642138 -1.505338 0.22397016 -1.2616377 -1.1373684 1.5043306 -0.9939888 1.3785875 0.86330515 1.5089802 -0.54761714 -0.5994253 -0.16542259 -0.35593802 1.1373577 -0.51469713 -0.8110791 0.9832344 -1.790744 -0.5639229 0.32018167 0.060487323 -0.28113806 0.6829625 0.71044093 0.12672737 0.8833417 0.5311725 -0.23264568 2.4782827 0.4842937 0.8033473 -0.18693231 2.9045062 -0.9048581 -0.62350696 -0.42064315 -1.1271192 -1.862876 0.039951578 -0.34043524 -1.0790639 0.10077526 0.56317943
82248bb1-c4d6-41e0-9494-d98123475626 -1.3868957 -1.4699587 0.47103524 -0.9744973 0.5960059 -0.37367147 2.7978814 -0.77679324 -0.82650244 0.17014684 1.0507362 0.14172137 0.3192163 2.3670726 1.7951564 2.62936 0.838517 -0.9294002 0.9641035 1.615038 -0.6448209 -1.2858787 -1.9127388 0.3356254 1.2586886 -0.48635614 0.62382513 0.10588684 -1.350514 -2.2255883 1.6134499 1.2274414 -2.3927689 1.396655 -1.4390848 -1.7227818 -1.7328447 -0.2896206 -2.6478322 -1.1314121 -1.1057322 -2.2643821 0.8860553 -0.48204887 -0.59046656 1.7508496 -0.07079093 -1.8713306 1.3224049 0.2964613 -0.35162216 0.38914323 -0.25267 1.8407841 -0.488117 -1.8202349 -0.5656925 -0.0848889 -0.4418822 -0.74568826 0.24104618 0.08789162 0.3932518 3.6044319
ca7ad9db-fb88-4260-b3d5-03a710dc1800 -1.2469612 2.683699 -0.07799976 4.734671 0.3107453 -0.26393217 3.5273445 -2.5918314 -1.4002036 0.8150571 -1.2659925 -1.1740241 3.360506 5.0001507 0.010728962 -0.9632911 0.98541677 -1.1161233 -1.3236781 -1.2318807 1.1966302 2.2601674 -0.81827766 -0.20401296 -1.9224733 -0.09262721 -1.0013745 3.983896 -0.3578907 -3.217182 -1.3166462 2.366847 -0.8520152 1.0614048 -1.3552488 1.0497408 0.65498155 -1.518213 -1.6375723 -1.4698923 -0.7307343 0.86014247 0.43854362 0.0844222 -0.20372541 -1.6471668 0.44779676 -0.23799577 -0.7450579 1.6807858 0.26139712 2.4138284 -0.6413392 0.9609581 1.5348643 -1.6167022 -1.0437685 0.17057766 1.4112647 -1.5788399 -2.5432189 0.9043208 0.17832279 0.5022959
76698ffe-70ab-4fda-be0d-755234f6d340 -0.493466 3.1131415 -4.2005625 0.27785033 0.60531193 2.2568877 1.2334307 2.204353 2.9069083 -3.4163072 0.25933716 0.47520757 4.233028 -1.4041951 -0.2627282 0.7933799 0.5783112 1.0404984 0.8343393 -0.27136326 0.67402565 -0.092927545 0.831657 1.329194 0.8870368 2.3593504 0.93596315 2.1743479 -1.8471649 0.6186982 -0.049741264 -0.5454385 1.5793118 1.4488728 2.4277165 3.6301897 1.1553296 -2.5098357 -0.016391596 -3.5454993 0.05427628 0.10522122 -0.8129644 -2.2375298 0.63866353 0.18715669 -2.3433259 0.5766949 2.0487828 0.5998661 -2.1174388 1.321352 2.2623305 -0.22858378 2.3604884 -3.4360094 -1.4803993 -1.3948172 -0.12426645 1.6905493 -0.68874854 2.8863194 -0.27382633 0.63265514
dc1a1744-4089-43b3-b2e3-4e397b6b15b1 1.1122708 4.0728536 -1.6394842 1.1475283 2.4185247 1.3725368 1.1310737 1.8071901 -1.5871123 -2.9951985 0.22113092 2.3872073 3.1125357 0.004786086 1.0586536 0.22584635 0.47575998 4.032196 2.0774348 -2.9905117 0.5553005 -1.1696703 2.922967 -0.8881436 2.0397627 2.3703299 -0.020045333 -2.309932 -1.1335009 -0.99332905 1.6370546 1.113298 1.6470261 0.56050307 1.2273122 3.064238 -1.4609582 0.25987956 0.8309509 -1.4076107 0.17452605 -4.255111 -1.2300122 0.06802136 1.5124774 0.0024335256 -2.1141024 0.0849452 1.9211948 -2.0169523 -0.14605014 1.7123082 -1.1805478 1.0537993 1.0832496 -0.8329021 -1.413216 -0.89481115 -0.80332917 2.009072 0.75142556 -0.48196962 -0.9828487 0.2242076
b220a437-0d51-4390-9993-63345d0c83ad 1.4433373 -3.39693 1.010381 -1.2109711 -3.3831916 0.98823255 2.0220487 0.8071565 -0.13604236 0.38793838 -1.9221008 2.3477733 -3.2070043 -1.5553277 1.715766 0.9606542 2.7165499 0.9990404 2.023721 -0.7990033 -1.3564891 -3.1958337 1.9701132 3.1274884 -3.0297916 1.6777141 2.0902777 1.1611606 0.7143919 -4.920523 0.19088641 0.71553403 -2.2151933 0.21435763 -0.63958615 -0.18250641 3.1466272 2.0446162 1.136402 0.08163043 3.425884 1.8839109 -1.6800797 0.91326034 -0.94588745 -1.9068921 -2.8476017 -0.17229569 0.6919857 0.86832345 -0.898375 -0.5835472 -0.6616506 -0.9473591 1.8944144 -0.58401453 1.1351211 0.018140111 0.07438001 1.3621261 -3.2920845 -1.8209271 -3.2525382 3.2116401
eafed48e-6a19-44cf-993c-c7b9a3a22cfa 0.69034684 0.053581156 2.4060636 0.49605083 0.18411325 -1.6173441 -0.7842682 -1.9272212 2.1003163 -0.38691097 -0.8359636 -1.1850446 2.336887 -0.597463 -0.58780175 2.2956274 -3.1842587 0.27297774 -0.049475696 2.8986332 -2.894129 -1.974355 0.62795156 0.71246994 1.1537155 -0.35945725 0.6419464 -2.2783308 -0.22519095 0.05648857 -1.0782789 -2.6061008 -1.902739 0.48361552 -0.8296675 -0.013052271 2.0208952 3.3061793 -2.315911 2.5088565 -1.209379 -1.1226854 0.46539825 -1.4800174 0.9564013 -0.20583741 1.1791185 2.5881922 0.112951264 -0.1805349 0.17168136 0.7171893 -2.400516 0.2603197 1.8186892 2.0702755 -1.7376152 -0.32451928 1.4778563 -0.38232145 -2.4317243 0.28284794 -0.3535849 2.4200003
2b151d45-cac7-4a94-a30e-56755dd11c90 0.55287707 0.56138605 2.9244454 0.8578755 -0.60761863 -2.4839976 -1.0437557 -1.1777109 0.97242266 -1.9717895 1.527062 -1.9681779 1.0211416 0.35773587 -2.019605 -2.6565144 0.80456895 0.85797346 -0.36927748 -1.0145313 -2.2319386 -0.1391228 -0.7813522 -0.18278648 -1.0254225 1.1130453 -2.7841842 1.1917374 0.43255654 1.3942213 0.1295617 0.45136094 -0.46033752 -0.36493078 2.1521933 -0.84880936 -0.25375026 -1.6012646 -4.4667783 0.55267113 -2.2068214 0.9783098 1.0437102 -0.985627 2.106714 -1.3836805 -0.48070487 1.7031778 1.1635548 1.093235 0.38370508 0.4233239 0.3400135 1.9507642 1.6016366 1.3341179 -4.0998964 -1.0673854 2.9354901 -1.4645926 0.109995276 1.3457047 0.770988 -0.6388909
7efd1d19-8dd5-4c20-8942-7c0086f26983 -0.11208906 0.06838682 -2.3975716 0.51776195 -2.0554829 -0.43255138 -0.6580229 3.4651554 1.0841205 -0.44864988 0.2598446 0.42717886 0.33730453 1.7673008 -1.1283795 1.1828104 0.35701713 -1.0135783 -0.8542033 -2.284324 2.2557065 0.57421863 0.37617326 -0.17633651 0.6999451 -1.1622807 2.1595895 1.4124362 -0.077802286 0.28660202 -2.6139226 -0.09177867 -2.1214852 0.21276663 -2.327035 -1.6379908 0.9592859 0.49570674 -1.2475789 1.6522709 -0.97952116 -1.5501701 1.6118138 -1.2879609 0.71538645 0.31780916 -0.73101074 -2.0489874 2.702356 0.3987144 0.51512915 -1.4356405 0.07191319 -0.056594893 -2.009537 -1.897701 -0.91895336 -1.1414161 0.19413215 2.1405792 1.0534117 0.64044577 2.63717 1.9727896
d0589765-f4bd-462f-9352-6e4bc0160aba -0.4568437 -0.73667467 -0.94854826 -0.32857502 -0.22007981 -3.2855985 -1.8097377 -0.24644677 3.5451896 0.38859007 -0.5545358 1.08798 1.0298423 1.975767 -3.1054063 0.2195629 -2.0888622 -3.3053358 -0.28587162 -2.2432323 -2.2396898 1.2906799 1.7937294 -0.6487162 2.2683723 -2.90282 1.9028635 0.29804578 -0.32382774 -0.32000878 -0.14056665 -1.0977045 0.5747395 1.0025047 0.7790063 -1.4712315 -0.25052541 -2.3316975 -0.07517424 0.6098569 -0.48582307 -3.600305 0.91150296 -0.14681563 1.4703372 -1.8024395 -0.37155646 0.15998568 1.289844 -2.4222603 -1.634652 -0.7930462 -1.3089658 -0.9002943 0.50856906 -2.603491 1.3548928 2.1589644 1.1191493 -0.7249791 0.92614913 -0.2525235 2.9735613 1.506746
9a24dcce-c03a-4523-96e3-893be1c400cd -3.6127424 2.0445023 -1.1799926 -2.1810677 0.12749949 2.1087804 -0.21140361 -0.36774203 -1.4878006 -0.67878723 -0.36940318 -0.030474432 2.1411693 -0.70801485 -3.1822338 0.38909122 1.115882 -0.29364106 -0.74067944 0.93033826 -1.1628208 0.7194416 0.76045233 -0.7367791 -1.9431556 0.9784549 -0.61369705 -0.49128857 -1.548033 0.6935343 1.3618151 0.8125506 2.0014648 3.6281316 -1.995155 1.98876 -0.65564674 -1.4778684 -0.44733244 0.6959791 -1.0281829 -0.30208415 -1.1787333 -0.372826 0.79481244 -1.2335817 -0.72185016 0.6249576 0.8320249 0.26903772 0.720448 1.0576997 -0.59102046 -3.6407871 0.53582937 2.0194032 -1.100997 -2.5340638 1.4248468 -2.7622921 -2.779848 -3.0235271 2.6323924 0.03800811
c1f13d41-ed7f-44a3-be11-fd95525ddf40 -1.3102214 2.0787718 -1.0404305 2.5082047 1.445913 -0.5943826 0.43081275 4.4680867 -0.080115035 -0.61052775 -0.67109776 3.085381 1.5782888 -0.94525576 0.09343352 1.7126764 1.011308 0.99253136 0.96848786 1.7004755 1.1320012 -1.0436803 -0.56310064 1.3244085 1.0270671 0.7644046 -1.2602224 1.8561435 -0.8422911 -0.20010334 -1.2431352 -0.07707966 -0.8858345 -1.0024763 -1.7068847 -1.3847766 -2.5547366 1.5079558 1.7533947 2.1399066 -2.9907608 0.5570404 0.39488938 0.5004595 2.0269196 -2.0324984 -2.0891593 1.6501526 -1.888999 -2.6263108 -0.66480607 2.7913492 1.46561 0.23100223 -0.97866637 0.8678057 0.33678895 -1.1973252 0.86753875 -0.90685743 -2.7844782 -1.4970769 -0.12147546 -2.9299572
06017464-d3e2-4a4c-8bef-250eff0de7e4 -1.9122669 -0.08000382 0.9925694 1.2041061 -0.7902195 -0.29771507 -0.17263006 -1.9906818 1.2379664 2.7034597 0.21113573 0.35500053 0.83228 1.4877038 1.6072276 -2.4509652 0.4820401 -0.44694683 -0.65974396 1.0500088 2.7822063 -1.4492959 -0.06627216 -1.0860324 0.041326907 2.0737927 0.53208244 -0.36340562 -1.9029483 -0.9864105 2.8481994 1.8165412 -2.811338 -1.9875755 0.8313261 -1.6228566 -2.0344832 -0.5005441 -1.3011986 0.03773831 1.2707537 -0.11021604 -0.44547817 -1.3925999 2.371385 -1.2725612 0.8524987 1.1422721 -1.7573133 -2.4810464 -0.7527261 -0.9843609 0.26152143 2.32956 2.1347587 -1.174696 -0.641229 -0.27521697 -0.68330884 0.09000244 0.60078263 2.8671892 -0.35688022 1.4691609
36f6dee6-2942-4787-85a5-180a9d71e6e0 3.3723986 -0.73546946 -0.64624685 -2.7916164 -0.39157224 0.34434655 4.4938974 1.5105093 1.5516638 1.484326 1.0415523 0.8062599 2.323095 0.52996004 -0.3724231 -2.3950562 -1.8280898 0.08201509 3.0973008 1.046343 0.3475575 3.9478433 1.3656585 3.7674944 0.6542553 1.5477451 0.29133716 2.3936758 -0.26830703 4.390965 -2.0961497 0.7053414 -1.1976267 -2.193433 -0.7778996 -1.2084068 0.08001692 4.705796 -1.0045496 0.9955662 1.5799017 -0.0348709 -1.1869005 -4.5139384 2.0730562 -0.6862974 -1.826237 1.0246614 0.19941346 1.461228 1.4309896 -3.8410764 1.3242112 1.1383718 -0.11884812 -2.0390127 -0.3383371 0.6153648 1.2821151 -1.7056848 -0.2778222 -1.5211998 0.9124003 2.0451155
8ec6ea6e-a259-459a-9e5e-ffab399a2e2e 0.726688 -1.1304727 3.482786 -0.3461402 2.0576413 3.8071923 1.0060956 1.2453711 -1.7784648 2.1688452 0.5534859 -1.675952 1.5583074 -0.016431699 -3.58366 -2.8194714 1.0207748 -0.41879487 0.25076652 -0.034200773 1.0548224 -0.2483853 -0.61551464 0.8172396 -3.1153753 0.46109653 -1.5958531 3.6107142 -4.5202494 2.5387354 -1.3922628 5.59989 -1.2633836 -0.1646848 -0.20884503 4.4366913 -1.6575954 2.7174304 2.6369822 0.5558991 3.2169168 -0.7813099 -0.011220677 1.5160674 -0.350284 -0.9579744 -0.21256982 0.15085675 0.11530744 2.1260223 0.96487164 -0.21356206 -3.8414245 0.7423933 -1.623666 2.331943 -0.7840141 -1.4459966 -1.8513743 0.83185136 -0.120304555 0.067642644 -0.4341671 1.4321073
9b8a4862-56dc-47b1-b56b-8a647fdd72e5 2.0928738 -0.03646649 -1.97197 -4.444866 3.6303296 -0.16722015 3.8160048 2.285411 2.0809152 -0.49081618 0.55348265 -0.46149915 1.2495893 -0.063032866 0.024198167 -1.4516327 -1.144233 1.132236 3.0075536 1.1741921 -0.101150006 2.44934 2.342044 4.727651 2.6685784 1.6698143 1.6863344 3.150004 -0.9894026 2.9249742 -1.1223286 0.67993397 -0.57761645 -0.8219439 -2.395308 -0.58478224 -2.4670641 4.18909 -1.0189933 2.516169 1.8837308 -0.6834084 -3.748015 -2.6954255 1.9338733 -0.15092331 -1.9070659 1.6589879 -1.6968005 1.4119065 0.70610774 -2.3498101 0.6778024 -0.0007361548 -0.17594181 -0.4631354 0.76533574 -0.9490289 0.3844451 -1.8768109 -2.2202768 -0.005306334 -1.0770874 0.33389166
fb24cc90-bfc0-4744-a160-d28e69079f0d 0.5893989 -1.0488483 0.62654 -0.34971848 -0.6969066 -0.34499428 0.38409537 0.6051683 1.5076876 2.0360162 2.191201 -0.58070236 0.68670666 -0.26827607 -1.2851274 0.62789065 -0.57084996 0.94831735 2.0987844 -3.5568917 0.23111884 1.0374416 -1.5831445 0.17472506 1.3089533 2.1524274 1.9758931 2.6308396 -1.1177465 1.0115114 4.937895 -0.7994201 -0.7316581 -0.36347586 -0.61891407 -1.8960228 -0.29301262 -1.0103751 0.5033238 3.7241197 0.43095317 -2.6112876 -0.59068805 1.7684762 2.1415558 1.4578344 3.359281 -1.3902973 3.5268586 -2.287603 1.3541319 0.55951303 0.394018 -0.92528343 2.9337258 0.7670464 2.7415555 -0.43889812 -0.19959368 -1.0872667 2.1614063 -3.7310755 0.31362244 0.8487414
ddda6dc8-e9de-49db-bbd1-97e3d0bc1e6f 3.091882 -0.036954947 0.26232094 -2.77043 -2.338766 -0.033856753 -1.9682351 2.8027349 -0.68342197 -2.6353776 -0.022386003 1.622615 0.7282952 -0.34756202 0.49707687 -4.087512 1.8351078 -0.528929 0.76113915 0.858672 0.8718202 -2.9953687 3.404592 2.730101 -1.0031968 2.174367 0.51775414 -2.1016319 1.8598133 3.1831436 0.4793337 0.8460655 -0.047432393 -1.4819053 0.89213634 -3.423574 -2.1751196 -2.609517 1.1156548 -1.2643776 -0.42641953 -2.0986378 2.6656651 0.06925218 -4.0314817 0.9737947 -2.2290802 3.8189487 0.864707 1.2165588 2.774566 1.9626427 -2.6363711 -3.720395 -0.18875368 -1.426876 -1.4597073 1.2091688 -1.5268818 -0.6464828 -2.6338036 0.22333436 -1.2333286 -0.17349486
f517cd57-3c18-4bb9-aa8b-1b907e279bf9 0.1854596 -2.4218533 -0.7619956 -0.5664847 0.66280174 1.319771 -2.720539 1.7350917 1.9386791 -0.18998174 -1.8763883 1.344963 -0.9876979 0.2735817 -2.005544 -0.5580807 1.1971564 -0.51307476 -1.229276 -0.4966179 2.5956275 0.5807632 2.1388872 0.15582873 -0.9155729 -0.06923639 -0.6686796 -1.2767752 3.082947 0.087157734 1.083149 2.1948717 -0.98808104 -1.0398623 0.34550786 -1.2053893 -3.3132794 -1.4390165 -0.8683967 0.67972887 -1.0324268 0.310884 1.0232712 -1.0235536 -0.8799318 2.2717586 1.1327264 2.9064798 0.65282935 0.9148914 0.5860761 3.454232 -2.0751448 -4.2982683 1.8738927 -1.4311783 0.6816397 -1.9217435 -0.21624957 -0.27086946 -1.8000295 -0.25928858 1.220562 -1.2644019
1a3d4b71-78dc-41b3-97c9-965405892d2e 0.87356263 2.3712752 1.2729316 -1.4818399 -0.7101095 1.71055 -0.33206344 2.2093024 -1.4209896 -1.796929 -0.6210376 1.6232469 3.4104953 1.3843948 0.3268595 -4.245245 4.2571588 -0.38988966 1.1154631 -1.3226845 2.4956708 -0.7044129 0.95217633 4.7657275 -1.9110545 2.4800246 -0.38715592 -1.455224 1.9402649 3.1524358 1.4372528 1.251259 1.7295518 -0.69937533 1.2833008 -1.7728513 -4.132849 -0.9915892 -1.2781804 -0.17660253 -1.4923297 -1.4465259 3.4400046 -0.56069607 -3.3831375 2.3259137 0.16203636 0.7807074 0.83722275 -0.32176918 1.6189052 0.45470697 -2.837755 -2.262524 1.8173256 -1.965979 -0.96291226 -1.5324211 -1.8185469 -0.05444984 -4.259199 -2.5188365 -0.8435514 -2.0146322
27ebbb86-7d5a-4aef-bba6-2631f45d3355 0.23676209 0.98603636 1.4691813 0.96812016 2.1193242 0.9507087 -0.6042835 1.2461601 -0.8475837 -0.12660074 -0.92404884 1.7943369 -0.44256362 0.5590039 -4.3850546 -1.3225583 1.6487329 -0.28202337 -3.213114 2.0748281 1.0006484 -0.6852354 -0.36621734 2.777901 -1.6158782 -1.9284494 -0.61076033 1.1387849 0.6271066 3.184311 -3.1441884 -0.5989295 0.21812887 0.5544728 -4.665997 0.48509493 1.8541137 3.2205217 0.92221504 -3.7128592 -1.7294832 -0.07757592 -0.8410718 5.1173983 -0.65819794 -0.30888706 -4.2176905 -3.2262552 1.0235085 -1.7850257 -1.5925703 -1.1736665 -1.8182603 -0.9252048 -0.47404322 -2.869785 3.5978854 -1.5239874 2.2140484 -0.8621668 -1.8854715 -0.10895919 -1.5199752 -1.787935
36110496-f717-4ac9-9698-60601ab77454 -0.011983431 0.3440585 -1.5738049 0.20208994 -1.1441827 1.2639309 1.3532337 0.29082352 0.99799603 0.71192056 -0.021953588 2.5325267 0.6327666 2.6492393 1.3499651 -2.8894424 0.9399792 -0.5980595 -1.7094079 1.4164541 0.3713805 -3.2155187 1.1143255 -0.52340996 -4.377634 -2.465479 -0.3387485 0.8523759 0.43677834 2.2946773 -3.4226067 -0.004733358 1.6616371 -1.5903343 -1.1203586 2.4243407 -1.9856151 1.2111071 -1.4685808 -1.3811171 -3.6877384 -0.4573274 -0.057600044 -0.07457727 2.3609884 -1.8785427 -5.375533 0.4261914 3.058958 -2.9238505 -2.5802047 1.8445555 -3.0435822 0.16913824 1.2009143 -1.5501391 2.6928082 -2.5263438 4.119275 -2.235993 -0.23167579 4.084302 -3.3144584 -2.7254357
f8490f74-437e-467a-9fa3-0e5f60e0bee0 1.1315615 0.51988846 -1.1575702 -1.2549475 -1.4995512 0.4168538 -2.9957674 -1.4989924 4.677204 -2.757343 3.2009363 -1.2967681 -1.402179 0.30426642 1.9530976 1.1383045 0.6903432 -1.1019017 -5.6294255 0.8575492 -0.11242638 1.5181031 0.090188116 3.8694005 -4.3608093 2.7931106 2.4766757 0.66064596 -4.6950073 0.17037457 -0.6125111 0.9587253 -1.9087982 -0.5394065 -0.41095248 0.26648363 -1.6468655 0.22255914 -0.92577094 -3.161961 1.5775256 -1.2563548 -0.22834092 -0.034897562 -2.0078123 2.1755483 0.7454837 1.2955505 -0.5226397 -0.42450017 -1.865188 -1.0314201 -1.8528986 0.45044047 0.7372682 2.9987774 -2.3245158 1.3988776 7.063515 2.401286 -2.3735921 1.3176249 -3.8673139 -1.1145031
0889f128-e479-465f-b3e1-a3db6a3879cf -1.9031726 1.0730964 -0.44833684 -1.1461344 1.3865871 -1.2618417 -3.3661392 -0.45155162 3.0391572 0.20324504 1.7336068 0.3464292 -3.623164 -1.5219768 4.167216 0.2617844 1.1267052 -3.1234875 -5.029849 2.694811 -0.5149312 -0.03837816 -3.1833014 -0.6811675 -2.8352401 -0.92526126 1.8333392 0.70323676 -3.739454 -3.407178 -1.0688312 0.6552917 0.61095035 -0.26389274 -0.3475706 0.55630934 -2.2812681 -0.33403793 0.29139954 -4.3312273 0.46483624 -1.560095 0.073777094 1.9488013 -4.0016994 2.9740844 -1.6621618 1.2293241 -0.63954043 -0.1718983 -0.75625825 -1.0529484 -2.1307495 2.1773157 0.29126135 1.5773543 -1.4976538 -1.4228257 2.6673582 3.2726822 -2.8922656 0.19840476 -3.3124433 0.17066199
2df6d0c1-c3d4-4c44-ae5e-ee046446819e 0.08417642 0.20426922 -1.1461208 2.4187653 0.97021544 0.5886893 3.6940985 -0.8036635 1.6587988 -0.097071886 0.77764523 -0.609302 2.661931 4.9149537 0.19827513 -1.9716538 -0.9093927 0.26304543 0.6766047 0.6012534 2.368214 1.845097 3.5617087 -0.39863676 0.115010835 -0.36908716 1.9446144 3.3774848 -1.1114589 -2.077812 2.0307827 -0.5864449 0.7435387 3.7281165 -2.3894653 -0.58525634 -0.25762513 -0.6613903 -1.8570169 1.107636 -0.79119325 1.2463101 -0.20832494 -2.1912258 0.9780989 -0.66217905 1.1822649 -3.0996141 -1.4374743 0.76271045 1.2708178 -0.04612891 0.47063208 -2.026344 5.2609067 0.8654851 -0.42024723 -1.6919906 0.7177044 -3.781757 -2.5705874 -1.0848198 0.6286609 2.2356367
a01fcb59-5dc8-4bf5-b06d-dd567a6d2f5f -0.8863381 -0.9513772 0.22595865 0.28272486 -2.3973138 -2.1588998 -4.3194923 -0.9927393 2.020797 2.1105719 -0.5560238 2.5958235 -5.125034 -1.32577 -0.10200642 -2.914051 -0.7545737 -1.4071717 0.25356954 -0.8224425 0.66825336 -0.3177487 0.33448255 1.4527788 -0.5912051 2.6627462 2.791304 2.782375 2.2419536 -2.748681 -1.530038 2.6637318 1.3536738 1.2550436 -1.8269438 -2.8456569 -0.66825783 0.6722086 -0.91293484 4.5131006 0.25981832 2.2206068 -0.57586664 -0.96434367 1.857179 -2.6537027 -2.2012951 -1.7773108 -0.18376358 -0.2820639 -0.8969572 -2.4223416 1.9916731 -3.6056993 3.5108666 3.2051713 3.1663842 0.234872 1.124445 -0.60652363 -6.4277596 0.37509504 0.93218714 0.8497663
eea679a8-dc15-4eb3-ad10-089b69e94512 -0.505035 1.2092088 0.06644968 -1.4668797 1.1321181 0.17276263 0.5661254 -1.4600132 0.72059005 -1.8085176 -0.99957496 0.56520975 0.81022984 -0.24063335 0.37308034 1.4476316 -0.5277446 -0.14763385 -0.19936514 0.2890114 0.26734385 -2.2853074 -0.06467002 0.070839554 0.36676154 -0.98362416 0.43438932 -0.21908739 -2.0571396 -0.8074996 3.0442448 -0.7168627 -2.1135902 0.9197667 -2.5900173 0.1181416 -1.3152566 -0.5008407 -0.9048736 -0.16103396 -0.79921454 -1.6663696 0.20858799 0.36842358 1.5034049 2.0934753 0.23372634 -0.6292696 0.1766374 -1.0594844 -0.0572585 0.92043155 -0.83416116 0.6466288 0.56946427 -0.40914628 -0.8962689 -0.51772034 0.35161614 -1.2776356 -0.3249704 0.8529919 0.54716027 2.0522907
21d0d397-18d3-4868-ac77-09bc818fa327 -0.12475972 0.06969429 0.45344442 2.1410291 0.3254047 -2.3264282 1.4705735 0.65971714 0.26954317 -1.5657198 0.21938582 2.305245 0.1127049 -1.2968601 -0.16763097 -0.524208 -0.05039626 -0.9193567 -2.0677624 1.3413421 -1.2214149 -1.1306635 -0.95310587 -2.0029776 -0.85062075 1.117218 -0.05103381 1.5788431 -0.6046722 0.45963845 -0.95969546 0.6766854 -2.582661 0.9896322 0.053178933 -2.184814 0.78058225 -1.1735471 -2.0911152 0.7642773 0.53124094 -1.3983158 -0.13787168 -0.043438036 1.3183384 0.5342791 -0.46693423 0.7844813 1.410736 0.5987272 -1.3355634 0.46212506 -0.64814895 0.106525816 -0.82207406 -1.1479439 2.422423 -1.6133733 -1.41411 -1.3877431 1.1563687 -2.215709 2.0579815 1.644292
c25b48e9-bdae-4870-845d-5a67c1189fe1 -0.9240393 -1.1172962 0.7798063 2.0906115 1.7927282 -2.4022017 1.6258161 2.1465282 1.0582774 -1.0674715 -1.6257987 2.8207743 -1.6181387 -0.32698837 2.8218377 -0.7844928 0.312633 -1.5394154 -1.2836815 2.2919548 0.6630456 -0.5611859 -1.093803 -0.47214663 -2.0385835 0.22883865 -0.7410319 1.6285918 -2.3292732 1.1299838 -0.43181178 0.013235935 0.011579105 -0.2553803 0.8394375 -1.5600014 0.23943657 -2.6340096 -1.9360565 0.9135638 -0.36542925 -0.5045141 -0.61367065 -1.0974602 2.473683 0.51831234 -0.7083619 -0.84471565 1.2151523 0.34667683 -1.4766588 0.68073815 1.0900197 -2.1107645 -0.10264485 -1.5240264 2.940363 1.850068 0.3825147 -2.3036025 0.16106164 -1.6330696 1.4058316 0.2545442
30dd5f93-abe4-4758-aba2-251f99f14332 1.0284724 0.10173649 1.4098437 0.22315396 -2.3788567 2.8602688 2.1109116 -1.3475695 0.71783143 1.9182425 -0.04138525 2.453665 2.5658603 0.12534277 -2.1778147 -1.0253829 -0.3707216 -0.91867775 1.2251554 -0.117039785 1.4531285 0.38033414 -1.3437693 -0.9546141 -0.28460407 -2.1940775 0.29238757 1.4355432 0.9365577 -0.015891273 3.1373343 -1.0685682 -1.6863151 -1.4313573 0.015289177 0.3395547 0.92163193 -0.17425506 -0.8637532 -0.20204005 -0.4361688 -0.5745619 -0.4157868 -1.3181527 -0.4867076 2.1858025 0.9014602 2.5443492 -1.6867 0.9560642 0.5265493 -0.26980913 -0.26581678 0.07907066 2.784281 2.1973875 -4.7612476 -0.552179 -3.174427 0.46697924 2.5850165 -1.1337461 1.3531694 1.31291
17a26e6f-1f1d-4585-a9f6-433272730101 0.5615698 0.78864986 0.75401473 1.1206545 -1.3800288 0.08748485 1.8346636 -0.878153 0.4257731 -0.17476624 0.8414951 1.7976683 2.186538 -0.8787717 -2.0721505 -0.3319459 -0.3691686 -0.52745354 -0.6318651 0.42157274 -0.73539555 -0.5066252 -0.90918505 -2.0461605 -0.056487534 -0.44226423 0.11866662 1.3097767 0.65820307 0.17694233 0.9503116 0.23416518 -2.5386596 0.3919889 -0.26945353 -1.0332075 1.0045295 -0.25177643 -1.2726146 0.00038338327 0.3927762 -1.3114575 0.029322494 -0.46767306 -0.18568419 1.25736 0.57794505 1.9328958 -0.28384137 0.5792199 -0.003151048 0.09494569 -0.93293643 1.03826 0.42308074 0.45442855 -1.2634647 -1.9775591 -2.8637989 -0.20157805 2.492097 -1.493244 1.8771136 1.7022231
1426641b-9150-471c-8dd0-15a61f2ccc5c -0.5280897 0.94245905 -0.28262386 -0.5592142 -1.7540926 1.2512355 0.3558351 -0.11599942 -2.0517726 -2.5605307 1.6779549 0.029211616 1.0885413 2.472559 -1.0421739 1.9450797 1.832799 0.2721111 -0.6070864 0.57855266 2.2547567 2.4566274 -0.6302637 -1.5860301 -0.65037715 0.12243159 -2.4855332 2.9825406 0.6907218 -1.719313 -1.6102986 2.591881 -2.9138706 0.8452468 0.28491417 -0.5177026 -3.271628 1.8788704 1.2255263 0.33944473 -2.7764692 2.9209535 1.9302385 0.48931038 3.2523348 -0.37769514 -2.3886626 -1.0463599 -2.9919586 0.14521317 1.8325927 -0.010738715 -2.130206 1.2781947 1.334275 -2.2984335 0.19779088 0.57685584 -0.83376503 2.6770751 0.29287153 -1.2627274 1.1582036 -0.96461207
1ff456ee-52a5-4032-8872-953f553d5f33 -0.06931474 0.89083225 0.2046121 0.85739607 -0.9922839 -0.5091798 0.90537226 -0.2100049 -0.89410645 -2.0767808 1.4858004 0.7173302 1.1277435 0.36872533 -1.5689266 0.93633056 0.37028 0.09838799 -1.4507183 0.5148175 -0.16490673 0.0754106 -0.55422294 -2.6011982 -0.12191938 0.80256623 -1.1088933 2.030391 0.6883916 -0.69116575 -1.3580567 1.641415 -3.154616 1.3138454 0.13325505 -1.3648332 -0.8119381 0.69154805 -0.4598237 0.25179964 -0.6395667 0.4011833 1.0934443 0.49473578 1.3340522 0.0743258 -1.0652286 0.21109086 -0.8258535 0.33115268 0.15016747 0.13827646 -1.7887883 1.5942582 -0.46656635 -1.6920147 1.0752665 -1.4616404 -1.6175295 0.9236657 1.4774373 -1.6496012 1.7350677 0.23115681
321333cd-da30-4c5a-92ef-a9d1abe733c6 -0.063318096 0.84570694 -0.35948095 1.0566647 0.59773916 -1.5723263 1.0752792 1.3221774 -0.18097335 -1.4750664 1.764 -0.17157574 0.33734673 -0.44056204 -1.7319057 0.8153009 0.7192271 0.08385011 -1.2149135 0.7801105 -1.2617253 -0.80684656 0.66424656 -2.2125113 -0.90418637 0.41936767 -0.96536845 1.2683057 0.28459144 -0.019814257 0.18444622 0.8144967 -0.544258 0.35986346 -1.0748543 -2.0689163 0.8284952 -0.983575 0.3051149 0.49149475 1.5548301 -0.53668386 -0.43152562 -0.62568337 1.2684981 -1.1141841 -0.32118946 -0.1701089 0.55196655 0.41648608 -0.7846648 -0.3737718 -1.189953 2.330531 -0.617961 0.18340042 0.45029783 -1.2820544 -0.8718045 -0.70111006 0.0066405414 -2.2481654 2.2363458 1.712194
0f2e8c41-78fa-40f9-9eea-857c07bacd80 -0.35561237 0.61600184 -1.4528711 0.29792637 1.9444002 -1.1484846 0.5700494 3.267742 0.1457646 -1.7454132 2.8670037 -0.84584063 -0.7542845 0.97444683 -1.4532167 1.5528307 2.6102524 0.3170075 -0.84255826 0.84741837 -0.528709 0.08563965 2.3400981 -1.33222 -2.013813 -0.6801249 -2.3742425 1.8103096 0.06781081 0.108668864 1.4335318 0.79169124 1.8929559 -0.546096 -2.1759992 -2.8682883 0.45351413 -2.1215432 2.8261383 0.13573807 2.2169876 0.4328292 -1.8962438 -1.679863 2.5627325 -3.6155179 -0.9754791 -1.4618672 0.47508937 0.38045436 -1.1277055 -1.4373853 -1.2064894 3.5637 0.16110106 1.836781 -0.8858293 1.199425 0.6119905 -1.2075979 -3.0009336 -2.9509103 2.5455508 1.7071334
62f5f8d8-fce7-4e8b-bee2-2207cdfe1fd9 -0.8450651 0.9543013 -0.54814816 -0.12987489 0.19067812 -1.2289809 0.1496681 0.28104007 0.047784988 -0.5527901 1.0992122 1.5127658 0.83152527 -1.1411582 -0.36568633 0.379793 -1.0834821 1.7566428 -1.5219601 -0.022228742 0.37076733 -0.9102669 -0.39276767 -2.385009 -1.3681526 1.1251483 0.34518334 -0.04495052 -0.11873373 1.0463425 -1.2934415 1.2860211 -2.1932912 1.8467283 -0.094853 -0.6046481 1.794581 -0.20718922 0.008926011 0.24338815 0.61302364 -0.60474324 -0.5218164 0.17485295 -0.027732477 -0.44853485 0.8797465 1.7825258 0.5956799 -0.025259925 -1.2549114 0.8123237 -1.0966259 0.12041273 -1.6950636 -1.2111083 1.1648784 -2.1422763 -1.0715156 -0.29237437 1.4731976 -1.5483462 1.3173282 1.8666071
bcd1365f-8496-40f5-b9cf-06f2493e48c4 -2.3541956 0.9284843 -1.3697228 -2.9196472 1.1517997 -0.38423187 -1.3695856 1.4025282 0.37993506 0.78547984 1.1439884 1.9852216 -0.22453757 -0.6773821 1.532549 0.50393546 -1.9988276 4.2358813 -1.5204936 -1.1215475 3.4350996 -0.02554515 -0.12085122 -1.6876308 -3.556108 1.3174139 0.74991643 -1.9654018 -0.9033842 2.6806262 -1.3262551 1.6047195 -1.632559 2.654769 0.37452212 0.74470866 2.8906963 -0.4662004 1.9361321 0.054795325 0.6729218 0.6698149 -1.8227072 -0.55075276 -0.7998963 -1.8087282 1.2679219 2.4441466 0.028562106 -0.87413687 -2.068963 1.7282554 -0.9305806 -1.6973197 -2.5440173 -1.5851763 1.065732 -1.0478618 -0.0059792064 0.67521656 0.64725137 -1.3896707 0.54936093 1.9806257
f725a60e-a666-4269-82b0-946ecfb84b7c 0.49641076 1.881956 -0.48578888 0.6700768 -0.03424411 -0.7097619 -0.31932232 0.01689891 -0.6901334 -0.6574271 0.8621033 -0.1386617 1.4122343 -2.0759306 -1.6025116 -0.3895864 -1.7651758 -0.27367136 -0.5838743 1.5852603 -0.4598488 -1.0887231 -1.961664 -0.45879593 -1.0648041 -0.073592864 0.117118545 1.315548 0.9651656 0.40582776 -1.1409541 0.95431376 -3.1898155 2.159076 0.13983327 -1.7260439 0.26893666 0.0362275 -0.4362248 1.2256888 -0.9801077 0.07276942 0.13797559 -0.13741098 -0.08224311 1.1950475 1.2159189 0.6030517 1.043939 1.4345264 -0.13563314 0.7527287 -0.632478 0.48206678 -0.8005212 0.53847927 0.82327086 -3.1246848 -0.3997683 -0.04866689 1.027883 -0.3914251 0.9959371 1.7985227
2ba2fbbf-c8fd-4e5f-b010-3fe0c1515566 0.85849816 2.6966696 -1.2215232 -1.0638653 0.8210529 0.37407285 -2.2645123 0.46552154 -1.4996635 -0.014832939 0.50805724 -1.9081209 1.2713938 -2.8760903 -1.599503 -0.8254461 -3.4458768 -0.90673584 1.0794915 2.387725 1.3561602 -0.2999247 -4.1961236 2.339002 -2.0178125 -1.0249938 0.47062898 1.096825 1.6359905 1.1813828 -1.1737564 0.6643377 -3.517578 3.206963 0.97361875 -1.688558 -0.9451498 0.36552042 1.1190441 2.1588483 -3.201847 2.4388247 -0.48151675 -0.91557556 -0.014836529 1.9475127 1.9644556 0.06516225 1.5385014 2.7426155 0.6128595 1.3385862 -0.034444634 -0.89048654 0.2658796 2.4823925 -0.73352206 -3.3882172 1.0124501 0.15292189 -0.71217597 1.3804324 -0.0419619 0.9523056
6fc19509-621a-4b61-8294-49a756d24ced -0.15373877 0.5269958 -0.7246735 1.3529667 -1.0209074 -1.2854208 1.6531062 0.040187526 -0.8475317 -0.22949003 1.9137543 -0.27900812 1.2889773 -1.4393439 -0.3362717 0.912235 -0.110162996 -0.84320074 -0.40085474 0.53485733 -1.2123898 -1.1168392 -0.34122276 -1.1395156 -0.78812045 -0.03712321 0.7339155 1.4895438 0.85217726 -0.24849655 -0.86714023 1.0050803 -3.3603122 -0.16220506 1.1537697 -1.4240391 1.5071548 0.34042877 -1.7877696 0.2330435 0.5767469 -1.6541476 0.41509852 1.6605786 0.5361106 1.2881877 0.27571926 1.2312113 2.096368 1.3574927 -0.66365284 1.5633729 -1.1924455 1.3069047 -0.07455774 -0.95963156 -0.097380765 -1.2113897 -1.1675383 -0.010169507 0.38928476 -2.4313455 0.26659274 0.9469521
9add4ccc-dc4c-44cf-9b69-6878c162d431 -0.97554344 0.018098624 -1.7520454 0.5338305 -1.2143434 -0.49788964 2.0620582 0.60300535 -1.5685941 1.336708 2.6408844 -2.3071427 1.3641431 -1.3719181 1.5943476 2.0611947 0.3455074 -1.6063646 1.2707672 0.48297694 0.2716833 -1.0834204 -0.12565579 1.227381 -1.639323 -2.0122266 1.2240183 1.5607176 1.0152292 -0.42846674 -0.1562628 0.897522 -3.369789 -2.2848032 3.207963 -0.30277103 1.5981548 0.8930533 -1.8853285 0.17014468 0.2558256 -1.4273039 0.6611888 3.2923467 1.1311468 2.3022692 0.16493046 1.0400689 3.5047688 1.836591 -0.27628028 3.2831354 -0.70308894 1.0851747 1.3641528 -1.3320035 -2.2730258 0.7871502 0.13772966 -0.053590357 -1.3722508 -2.570675 -1.915229 -0.7245023
5ebe1da0-7631-11e4-a3cb-005056011aef -0.48181945 -0.022320779 2.261952 -0.07180938 0.965209 0.5964488 2.3114185 0.22645222 -2.4430683 0.6052808 0.2173644 0.8220175 2.2782438 -1.1151781 -1.3170633 -2.3462827 -0.003456428 0.8748353 -2.1806874 -1.165454 -0.6097901 -2.2586246 2.689058 0.051817108 3.3955643 -0.031104535 2.188674 -0.33485508 0.5436899 -1.1585392 0.65484387 2.2413588 -0.55780643 1.0794835 -0.7157281 -1.1019192 -1.1010774 -2.6232634 3.0244389 1.217718 0.54010326 -3.7321575 -0.6835508 -0.41807938 -1.7920035 -1.8389171 0.9081164 1.260216 -3.195038 -2.18937 -0.16177219 -1.4509971 0.03572644 -1.2461048 1.867844 -0.03974628 -2.0142362 0.064547695 -0.7869236 2.5933514 -2.7667825 -0.9187032 -0.6994864 2.4497383
916b042a-ee5c-420b-8481-17c74e7bb456 -0.005751827 0.65161824 1.0887201 0.96685463 0.08391144 -0.6741054 1.9344192 -0.03577562 -1.1891763 -0.46381325 0.9044299 1.0507696 1.7812362 -1.3988303 -1.6224024 -0.88230044 -0.22379765 0.13010666 -2.331463 -0.058610074 -1.5483742 -2.09018 0.8112438 -1.6087084 1.3579752 0.52913684 1.002122 0.5489712 0.5947621 -0.7114024 -0.29111126 1.6460147 -2.336725 1.338172 -0.6152035 -1.7656838 0.26853874 -1.1644063 0.06391228 0.9646587 0.6901135 -2.632728 -0.06314207 0.20130233 -0.6172265 -0.4624354 0.430648 1.418043 -0.67153406 -0.43297055 -0.40448022 -0.41224477 -0.83430886 0.4451519 -0.030406907 -0.5814343 0.2726312 -1.9555647 -1.5724894 1.1338993 -0.018806836 -1.6159375 1.1045663 2.4535272
8d35443d-7bf1-4f51-b9b1-e398e1d44030 0.7386527 1.4339075 -0.27289668 1.6454132 0.07465378 -0.25579906 0.8614095 0.22389126 0.28575465 -1.175567 -0.0061833607 1.5716287 1.1849035 -1.3204947 -1.6608335 0.1967442 -0.7526182 -1.0914035 -1.2072295 -0.095928 -1.4513415 0.13408089 -1.1851355 -3.2212756 0.3110621 1.2352724 -0.89017344 0.49676448 -0.2863892 0.27256656 -1.7529832 1.3097672 -1.7615045 0.7828516 -1.190732 -1.2292634 -0.098859236 0.20438445 -1.0550342 1.4646717 0.9437399 -0.5681015 -0.1415506 1.3729676 0.062751584 -0.29637235 0.62945104 0.8721579 0.60633683 -0.741772 0.0068041096 -0.24635756 -0.6892409 2.1607761 -1.043315 -0.20003924 1.0887276 -2.6477582 -1.6033355 1.142416 -0.11552487 -1.6393328 1.3129629 2.0724776
42c61b61-8e13-40d2-88f4-e4e3d06c97fe 1.5317107 1.9166284 -0.7418477 1.1620613 1.0512903 2.0448356 -0.14344844 0.9524292 0.7185879 -1.1477492 -1.7848191 2.31687 0.6894189 -0.30398008 -1.1188552 0.08803208 -0.8205681 -2.1762743 0.19398612 -1.346579 -0.383018 2.4612358 -1.6628207 -3.3252745 0.70817333 1.5779902 -2.3278835 -1.2465523 -1.4150076 1.1853172 -3.0134363 1.5236772 0.91436803 -0.36487094 -2.1727216 0.07295562 -1.6668683 0.5956081 -0.049883515 3.3189669 0.8123974 1.4564145 -0.92952913 2.2007716 -0.004040898 -1.5250398 1.8018188 0.13454954 -0.022464536 -2.7327569 1.0067804 -1.2092017 0.4563523 2.6697426 -0.20845552 0.988039 -0.037693255 -2.0710604 -0.5121304 3.359746 -3.430837 -1.200917 -0.35649204 1.9589846
8c607069-d84a-4533-9aee-5212e25ca212 1.3419933 1.12415 -0.979547 1.5085592 1.3468515 -0.8941091 1.7848967 -0.18520153 -0.8647976 -0.84301263 0.8612278 0.93558234 1.4927583 -1.7434343 -1.1534169 0.24236362 -0.1080871 0.36754256 -0.44731826 -0.35286096 -2.294844 -1.0008895 -0.86041266 -2.615377 -0.24601328 -0.2418731 0.7254879 0.3964099 0.13007951 -0.1458192 -0.0058635534 0.962837 -2.5213735 0.89829385 -0.83589435 -2.1004717 2.0231583 -0.25660044 -0.74527526 1.4174889 -0.75753397 -0.18993708 -0.34392712 0.20132256 0.49702096 0.13643289 0.19270463 1.9112589 0.5198455 0.2046362 -0.9110517 -0.6829442 -0.7772293 1.4119508 -0.23763067 -1.0287676 2.0727816 -1.2189316 -1.830677 -1.2892413 1.2994033 -0.85307616 1.5366145 2.0485113
95e1406c-32c7-4bfe-80c4-7f657a33465a 3.0481985 1.0833753 -2.5440667 1.2832363 4.0658026 0.8725228 1.7990512 -0.0054155476 -1.4745097 -0.028364856 -0.39973637 0.64801866 1.3673192 -2.353566 -0.26789376 -0.1240951 0.5956223 0.8995876 1.0877159 -1.0446771 -2.2529597 -0.0003276295 -0.9049354 -1.7269744 -1.0520575 -1.8924458 1.6289692 -1.1566259 -0.87093186 0.03576833 1.7344661 0.9802375 -1.1736925 0.3942868 -0.8526486 -2.1737251 2.0148096 -0.6007408 0.48373008 2.338163 -3.1979895 1.8959811 -1.2800009 -0.3181702 0.42947626 0.1725325 0.054749064 2.9375734 -0.6244094 -0.23306961 -0.97650915 -2.0809867 0.085608356 1.0167052 1.5350232 -1.3717247 2.1273148 1.7823 -1.3599164 -2.3733578 -0.18466537 0.33116013 0.092124246 2.009194
428c2bae-56c2-48bd-a917-3d04df0a63fd 0.8775992 0.2534127 -1.2391557 -0.70738095 -1.2490371 0.6120246 0.09078471 -0.21630521 1.4148651 -1.104482 2.532081 -0.8198701 0.5892755 -2.6898928 2.1167543 0.21430527 0.9341412 1.5521401 -1.8681047 -2.4626703 0.9888909 2.5251534 -0.036835577 -0.9621524 -1.101842 2.482322 -1.3750418 1.1038358 3.808008 -1.7136688 0.955508 0.336371 -0.12451123 0.6727288 -1.2454534 0.017195271 0.53583837 1.5141966 0.05209045 1.2067864 2.3160412 -1.0609976 -2.0234344 -1.7427483 -2.1746638 -0.14105226 2.6393826 1.7974061 -1.6199505 0.61736864 -1.2764126 -0.2862128 -0.7939729 2.1956487 2.7429342 0.78017336 0.593038 -0.56159896 -3.366533 -1.1300983 -3.1146095 1.0806905 -1.6014353 2.374984
b7b077e3-e03a-4fea-a6a5-853f145dfcdf 0.60156167 0.7042648 -0.5697219 0.944073 -1.0258732 -0.9443736 1.0049163 -0.19693676 0.7960227 -1.3546678 2.1357403 0.5020014 1.1337684 -2.3361478 -0.11200205 0.13581976 0.11325625 0.6788284 -2.0806496 -0.6001317 -1.0492275 0.23928861 -0.50048125 -2.1497877 -0.5641147 2.046981 -0.3506891 1.5207021 2.024547 -1.0318196 -0.09645108 1.0148473 -2.2598226 1.3226568 -1.0111185 -1.421916 0.93956685 0.70641524 -1.2697337 0.9550953 1.6333535 -1.7695239 -0.70912445 -0.45810506 -0.78557247 0.5299321 1.1943903 1.876298 0.014333236 0.47634917 -1.0749906 -0.022886459 -1.3295249 1.9221762 0.3345862 -0.018367259 1.433737 -2.5045044 -2.814092 -0.59222233 -0.24993771 -0.7818187 0.7003151 2.711382
a57d3670-b8bd-4aac-92dc-7dcebd1e55d8 -0.96956515 0.26769716 1.0897031 0.9838776 0.2704335 -1.052007 0.48165613 -0.035484623 -0.17361137 -2.3703845 1.7611419 1.4168017 1.6597487 -2.4377966 -1.172151 -0.23216736 -1.497771 -0.9272673 -1.2404779 0.18954758 -0.81277424 -1.1185919 -0.048346877 -2.3863108 0.14350198 1.1972663 0.9921289 0.6970969 -0.12001496 0.42010018 -1.1000313 -0.0959545 -1.6969137 0.8096547 -0.4014014 -2.222498 -0.016062982 0.8271792 -1.266207 0.59547985 0.6807164 -1.1474634 -0.20889574 -0.7487529 -0.43258727 0.08985555 0.85909814 0.5251094 0.061538 0.6155816 -0.31762138 -0.41103917 -0.862169 1.4194723 -0.63626957 -1.0637378 1.2476296 -1.3191478 -1.786923 -0.17134029 0.46894237 0.20256074 2.418688 1.0568682
deedf6f8-389b-4b34-a5b1-faa9ef909a70 -2.8844695 -0.99496305 2.3915682 0.53375316 0.84424245 -0.6021161 -0.39551413 -0.03125839 -0.28289947 -4.1275363 2.1553953 2.3839247 2.4797535 -4.5792084 -0.6227688 -0.95549655 -3.0133502 -2.0355468 0.033748038 -0.5387262 0.57749474 -0.9336593 0.6169006 -1.9904038 0.02859796 1.7045629 2.4516337 -0.36503568 -1.2112635 0.82927495 -1.5998137 -1.9918481 1.1048174 0.3825803 -0.5490366 -2.9581294 -1.6749872 2.432579 -0.4354205 0.69957817 0.23237383 0.06441721 -1.1155798 -2.664592 -0.96876645 -0.099998504 1.6357833 -1.0510238 -1.150019 0.16852781 0.058861334 -1.5111244 -0.09627599 0.65196383 0.4564345 -1.7300378 0.54884017 1.130013 -1.3536156 0.13066952 -1.1674175 3.2620194 2.616303 -0.10711044
928572d0-fc25-45f5-8658-beb6adfa42a0 -1.1101191 0.74222475 0.95771015 0.9968054 1.0612664 -2.1479738 1.4058858 0.49015647 -0.082763985 0.7020762 -0.23014759 0.9466723 0.65823853 -1.3966367 -1.2617668 -0.8366103 0.2660401 -0.21199293 -0.58107615 0.18175922 -0.8674034 -1.002261 0.87203056 -2.1002557 -0.23116851 0.13338462 0.17132889 1.0008624 -0.32593465 -0.32309213 0.006862693 0.04966269 -3.2420952 0.92433023 -0.1481893 -2.255316 -0.008869794 1.2950524 -1.3216933 0.17445926 -0.88609135 -1.0650214 0.8135286 0.80470824 0.5554057 -0.07816134 0.8579708 1.6470428 1.0956081 0.5256981 -1.0894915 0.687987 -0.27034885 0.0034506384 -0.38314345 0.3155967 1.0380495 -2.940337 -1.7637929 -0.19351514 2.7773252 -2.2517774 0.5705064 1.9786546
bcab8bcf-17f0-4cf0-8e55-d729a48e4f5c -2.6539023 0.4244268 2.0330565 -0.29486957 3.0010402 -2.325223 0.87436813 1.773022 -0.032361396 4.0443096 -2.5055833 0.55373085 -0.4607149 -1.3955574 -0.5335239 -2.2133296 1.2739966 -0.49297598 1.4260641 -0.53046614 0.5729935 0.04766188 3.0971024 -0.8977549 -0.48840538 -1.3035191 -0.24354066 0.33516496 -1.4882965 -0.5044118 1.4643183 -1.1837296 -2.7173126 0.33768094 0.37642056 -2.4702077 -1.6907527 3.3704457 -0.48857072 -0.66357356 -3.4045541 -0.16784877 1.2489144 1.1243695 0.99441636 -0.8420809 1.7653861 1.6477036 0.85048836 0.83387405 -1.3148003 1.2447367 1.7227901 -1.8177203 0.67594093 1.7430393 -0.1732669 -2.1534085 -1.3252443 0.22441731 3.591225 -2.8027108 -2.1108665 1.4377735
2cba8c94-666b-4edb-b9f5-73172968a65e 0.7083761 1.3888975 0.36651918 0.40157917 -0.26821658 -1.6464645 1.6854333 0.2326191 0.3282789 -0.59166795 0.90246534 1.4752406 0.36665812 -0.9539942 -1.7488904 0.08571041 -1.3483949 -1.075726 -1.0866935 0.33527187 -0.61523914 -0.7944134 -0.17335701 -1.7996436 -0.28276867 0.68159866 1.1057692 0.15953614 0.2507634 -0.44753134 -1.0857242 1.3075364 -0.9224476 2.3618839 -1.6357375 -0.3183221 -0.6528856 0.3723363 -1.9295403 -0.7954319 -0.1255087 -1.684232 -0.24259768 -0.31165954 -0.33273757 -0.7132815 0.041973528 1.3165762 0.028678883 0.67682654 0.08672276 0.24108091 -2.0950086 -0.11570225 0.06313063 -0.94407463 0.30090663 -2.2268085 -1.0102929 -0.03266342 2.568132 -1.1282433 1.7037904 1.3682647
58784f96-26e0-444d-ab77-21f102c5f3fd 1.1391122 1.7681172 0.486267 -1.5441755 0.039248895 -1.4157897 2.0861683 0.9650357 0.50077474 0.19742736 0.6872295 1.6259756 -0.6786599 -0.2138298 -1.4953868 0.24666119 -2.3320818 -2.214221 0.4116 -0.41783255 1.3664528 0.18487239 0.20001729 -0.43151283 -0.579987 0.24071296 2.6393056 -1.5187652 -0.08182346 -0.9940881 -1.130934 1.4536165 1.8341157 3.251687 -3.594939 1.57774 -2.8026896 0.86259377 -2.2897317 -2.1810923 -1.2693233 -1.7389735 -1.2542301 -1.1329589 -0.84187824 -2.4702225 -0.071711555 1.1008656 -0.93717295 1.054618 1.0430439 0.11324219 -3.1152954 -2.2021458 1.9486638 -0.34127316 -1.0894843 -1.1357371 0.037851166 0.41485468 3.0108142 0.10339287 1.2658526 0.65094185
aed2cee3-7ca8-4f00-ab17-9193fff516ae 0.98661864 0.38848704 0.29608414 1.3554926 0.18779439 -1.9345948 0.8199434 0.7380149 0.9794314 -0.5239068 0.80516315 0.52621007 0.9655296 -2.0265284 -1.1228462 -0.7022343 -0.14219016 -0.17605504 -2.47975 0.755081 -0.3711812 -1.6823097 -1.2843152 -2.1198416 0.1272105 1.4265726 1.5736667 0.47686866 1.087689 0.5955486 0.14091834 1.427774 -2.5213914 1.3553414 -0.8139884 -0.43068632 1.7417228 0.7066619 -1.438051 0.35827965 0.039587796 -2.0744865 0.42967322 0.516619 -0.30340108 0.16191512 -0.6596065 0.8027782 1.3983675 -0.0077996403 0.5266855 -1.1590669 -0.5922409 2.1612737 -0.14776899 0.15083517 0.7577488 -0.963139 -1.2592847 -0.77432954 1.5249413 -1.5676526 1.5717465 1.6270404
5fe78598-7631-11e4-a3cb-005056011aef 1.9177324 -0.91235834 0.5101915 0.4818564 1.0598952 -1.8596613 0.1312943 2.1661298 2.1602988 0.5420814 -0.2639092 -0.89450365 0.51353925 -2.591369 -0.14948751 -1.8976262 0.6867754 0.1696164 -2.8952281 1.0301752 2.2478158 -1.8504792 -1.9592824 -0.65230733 0.6035041 1.5125118 3.2273796 -1.2880536 1.6001121 1.8659432 1.8318284 1.5872895 -0.94842887 1.0531807 -0.80962527 1.5911771 2.1469269 2.0099049 -0.76117927 -0.044909153 -1.2222418 -2.4619596 0.11226095 0.68836737 -1.1065077 0.067943096 -1.4419899 -0.1935629 2.0194623 -0.8520245 2.443143 -2.8983073 0.4917335 2.4719994 1.7547134 1.7992028 -0.53240794 2.1152253 -0.26147237 -1.2381022 0.9881183 -1.2294476 0.9467421 0.88348716
24d6d3fc-ab41-456d-adc7-a265674b45cc 1.1599977 -0.67471266 -3.3370345 -0.9869624 -3.568583 -0.17451772 0.76547897 0.95761454 0.78792673 -0.44815308 -0.08885342 -1.3223017 0.60520786 -0.8538001 -0.49155906 1.0918455 -2.756823 -0.08146491 1.7043577 -2.3939147 2.3982008 -1.6747013 -3.4660048 -1.7347854 0.3369734 0.8097386 -1.0351958 1.4254001 -3.3612242 1.0413841 0.7356064 -2.0091226 0.31972283 0.20154858 -0.4716 -0.18002854 -1.9821637 -0.34378067 -3.024482 0.97486794 1.4740493 -0.9396408 1.5467936 -0.28400078 -1.7964143 0.38716936 -0.906177 3.2591662 0.80683106 0.9762799 -1.9972268 -1.5004342 -2.035295 0.9084727 -0.5714813 0.7643091 -0.34032762 -0.516446 0.71362793 -0.30243585 -0.6746138 1.2034448 1.7618273 0.13887762
1f6b4ecc-ce2c-488a-b9c7-b78b3bba5598 0.76409215 0.3941941 -1.3433502 0.8348211 -1.9313451 -1.2119205 1.2163719 0.16989832 0.25897527 -1.0482987 1.0184513 0.19363327 1.2376591 -1.3854994 -1.3543143 0.42960906 -1.4072622 -0.22608778 -0.5629187 -0.6869904 -0.31300366 -1.581903 -1.889516 -2.693305 -0.09710785 1.09491 -0.32307464 1.5607765 -0.928989 0.40286157 -0.23402625 -0.15810709 -1.8690988 0.8935916 -0.65562516 -1.3094885 -0.26944578 -0.35492587 -2.2390442 0.7649644 1.3736947 -1.4422402 0.85944265 0.2547435 -0.6304187 0.47918352 -0.41115123 2.328023 0.9475824 0.7096983 -1.228122 -0.2807598 -1.8328047 1.5881495 -1.0428479 -0.07797275 0.9110671 -2.1715765 -1.1130584 -0.18851769 1.0671039 -0.73459744 2.1044214 1.1247641
d2786d90-20fa-467e-ac4a-ff51dcd01b4f -0.10980514 2.2174783 -1.4910961 1.5847989 1.4128875 -2.5925944 1.4410255 1.3208139 1.6416961 0.327514 2.0019274 0.5260364 0.20365626 1.3384023 -3.2876592 -2.2803857 0.16501191 0.90487343 1.8000877 0.24901614 0.16962971 0.05851997 -1.1330881 -1.743742 0.072768785 1.0143281 1.0551529 0.48335952 0.17332421 -0.508607 -2.3941748 3.707066 -1.2668204 -0.544913 0.83018273 1.0862501 -0.4497649 1.1319966 1.177616 0.5953913 -0.5453451 -0.5408699 2.7306902 0.8878788 -1.0991924 1.1249882 0.18154313 2.600692 -1.4832675 -1.5341395 1.9147729 0.74640906 0.07369034 -1.6053128 0.27878267 -0.5198126 2.0290573 0.64672077 -0.65660685 -0.101667255 1.0096433 0.68287116 1.5419437 0.24415526
f14d9026-2d74-4a1d-aad3-7dddff9de029 0.002592813 1.6917667 -0.42130667 1.9515857 0.27945125 -2.4351833 1.6246407 0.4564143 0.68491805 -0.9501873 1.732449 0.95016706 1.0655391 -0.94049066 -2.6863263 -0.94174755 -0.23464616 0.42885157 -0.5558262 0.6685838 -1.2771375 -1.2273079 -0.8789382 -2.805782 0.08133784 1.4015135 0.37622574 1.3830141 0.35280514 -0.4273376 -1.700043 2.3062532 -3.0296047 0.7743268 -0.025743527 -1.1130714 0.23398335 0.39400515 -0.88319904 0.5331106 0.5398151 -1.5500411 1.3969564 0.74600494 -0.41394705 1.1069111 0.30424538 2.1518195 0.23056968 -0.19474475 0.4769646 0.6173279 -0.79492354 0.37469292 -0.8653479 -0.86569405 2.2741888 -2.2490017 -1.8381017 -0.1505775 1.8892883 -0.9750191 2.2184567 1.6820405
e302f576-db9c-4a7f-8693-52c9949fc670 0.040504202 0.7846769 -0.4724049 0.8046144 1.2768673 -0.44771224 1.8164488 -0.6406 0.6275333 -0.8038583 0.4707783 1.3322916 1.4835881 -0.064447425 -1.4024136 1.10826 -0.29678327 -0.045997072 -1.1543162 -0.27940926 -1.4175625 -1.3507487 -0.08229311 -1.750603 -0.19683541 1.9607427 0.7176376 0.23647428 0.7894893 -0.72554827 -1.053349 1.3180435 -1.6065935 1.1094798 0.4514586 -1.5056813 0.9660951 1.3908339 -0.48326856 -0.54185635 1.1461844 -1.2226846 0.5340951 -0.11836982 0.8654606 0.16645695 1.3473651 0.550133 -0.8707049 0.07552761 -1.1816709 -0.05861129 -1.902556 1.1758033 -1.5001707 0.09536643 0.24337313 -1.4477562 -2.942579 0.5843168 1.1434788 -1.4039273 2.7540724 1.6939851
37e4c035-b25c-4289-b85c-c6d36d11a763 -0.25401056 0.15689614 -1.7589769 -0.5643054 3.371594 1.2953693 2.0241199 -1.2651081 1.6996727 0.5419651 -0.92956096 1.8041892 1.6257873 1.7677512 -0.98078895 2.3260074 0.49233103 0.036842518 -0.012632183 -1.3856394 -0.53921694 -1.2305847 0.76435596 0.12813434 -1.2251524 3.398351 1.57805 -1.200804 1.5289367 -1.344864 -1.5005355 1.7028997 0.7254177 1.2343217 1.9257016 -1.0702578 0.37662315 3.216693 1.2128408 -1.5759379 1.356399 -0.18728352 0.6158677 -0.8300228 2.3038595 0.2925261 3.0468009 -0.38872707 -3.6864948 -0.63936424 -2.1023595 -0.45019254 -2.739542 0.042706825 -1.8734524 1.90294 -1.8820024 0.7137577 -3.7839909 1.7796085 0.029510222 -0.66306895 3.1498494 1.3373793
45ad868a-2e79-4029-991b-c29559d7eb29 2.4378042 -2.1486146 -0.45117116 1.1740907 -2.5232913 1.7730758 -0.19379452 1.0596898 2.56754 1.0091136 3.4310687 -1.8391632 0.12342224 0.5380651 0.0084870085 -1.7253892 -0.17944436 2.6379528 -0.022919148 1.0978655 0.6986564 0.55268896 -0.4060292 -0.44966936 1.3312085 0.83068603 -1.7977126 2.3315234 0.2916066 -0.2835626 3.5880315 1.4906048 -0.8661355 -0.5897153 -0.084518574 -0.0055742036 1.606185 1.9197077 1.6228735 0.3586569 0.24713717 1.4463048 1.1852083 2.6046932 -2.252514 -3.3047895 -3.3121731 0.49287143 0.52815264 -1.7621483 -1.5659738 3.2392993 -1.164888 1.1726006 0.9744153 -0.6857005 -1.6970369 -2.245376 2.216923 -1.2048849 0.8077543 -1.7658745 0.11771651 1.3734252
b95f3e83-a8d1-40fa-843c-cb712861707d 1.2104275 -0.47908506 -0.18147685 1.6709832 -1.5639946 -0.40906617 0.7100651 0.25806057 1.1541566 -0.2735621 2.3474927 -0.25514975 0.87193567 -0.6713187 -0.9346725 -0.55495435 -0.23194201 1.1928731 -0.9343051 0.8259079 -0.7451139 -0.83863986 -0.42695677 -1.6942884 0.5983458 1.0216043 -0.79347855 1.8859413 0.46623945 -0.45336428 1.1591125 1.280621 -2.0281386 0.5101201 -0.34445164 -0.9615671 1.2984219 0.84911203 -0.21890302 0.31276062 0.6401128 -0.09129415 0.6889605 1.2889766 -1.1042567 -1.0607965 -1.2297982 0.85004944 0.8269632 -0.62345713 -1.1560247 1.4807863 -1.2150985 1.3362204 -0.28593966 -0.7570836 0.20063163 -2.5972512 -0.19959019 -0.9122845 1.4974521 -1.645339 1.2836401 1.967786
b1fcfe19-7865-4fa6-8a07-d909ba048499 0.2891349 0.72192943 -0.26579273 0.51632977 -0.23484947 -0.6405165 -0.005666403 -0.22843088 -0.7975855 -1.989415 1.4105144 0.65472275 1.8743597 -0.1470695 -1.9839996 0.22717352 -1.3766549 0.15688522 -1.6000379 0.52043355 -1.4310471 -1.0849156 -0.48103625 -1.4702349 0.54694957 1.8653666 -1.1446981 0.6180306 0.16019465 0.62750196 -1.5754905 0.4501393 -3.2138774 0.43635437 0.08377523 -1.2257881 0.2813637 0.38424245 -2.039149 0.6742056 0.9675465 -2.400454 -0.27568364 0.52271277 1.0286086 0.41481024 1.2071197 1.1964079 0.56739134 -0.08196292 -0.18226881 0.2555403 -0.99640507 -0.30865583 -1.2800914 -0.6838998 0.5030986 -2.0576375 -1.0369409 0.4684778 1.9971693 -2.4015012 1.7598248 1.186499
81c09ecb-d593-4c82-88b7-3d9c2784deba 0.32667235 0.3422553 -0.7110271 -1.2569902 -0.09141662 1.6947393 -2.325168 -0.13343434 -1.5793273 -2.1351695 1.6972318 -0.20628314 2.0809712 1.9651723 -2.0452156 -0.44885656 -2.865237 0.47005215 -0.7665327 -0.16178294 -0.70651287 -0.72448635 -0.57164645 1.1959931 0.8076804 3.213378 -3.6046696 -0.62432647 0.20633902 1.4853053 -2.1286266 -0.6238091 -2.6942987 -0.6835196 0.9255834 0.16699137 -1.0874734 1.4400529 -2.9758182 1.0722734 1.2626404 -3.4875963 -1.5952787 0.504807 3.062519 0.5016541 2.5706236 0.8185123 -0.25782406 -1.3579965 0.5649033 0.55944693 0.07686483 -3.2849107 -1.1950564 -0.076177806 -1.5579647 -0.17432342 1.6143255 2.314153 1.5914687 -3.4440308 0.8570163 -0.089771464
5c83ecdb-7631-11e4-a3cb-005056011aef 2.1137104 -0.7041388 0.81996197 1.6101497 1.1069173 1.7008888 -1.9248664 -1.2192364 -0.86166775 -2.1126816 -2.6893573 -1.1260458 1.436915 -0.7292409 0.8863005 -0.8801616 0.57417196 -1.5963517 -1.8148825 -0.67759526 0.3597496 1.560309 2.3071568 1.6114854 -1.5439559 3.6515775 -0.0017873188 -1.1030581 2.0002518 -0.5534124 -2.9585726 -0.7712102 -1.4229608 0.18062241 1.6700615 0.1317095 1.2363304 2.2236211 -1.2006302 -1.3740675 0.08323998 2.020073 2.047888 -1.4082735 -0.8561662 1.3371978 -1.1863132 -0.15686704 1.7288678 0.5291489 -0.50708354 1.7473329 2.4014473 0.9904705 -0.7422645 0.51356137 1.5498675 -2.3636525 0.18346645 -1.0268885 0.21044365 -0.5152798 1.4906595 3.047876
5e31d8da-7631-11e4-a3cb-005056011aef 0.9389477 0.2716771 0.406522 2.1596365 0.081436485 -0.5774195 0.3419043 -0.3815126 -0.43977255 -1.8983597 -0.045650728 0.59744585 1.5746369 -1.4920601 -0.9523126 -0.24508032 -0.04356186 -0.6587136 -2.1431906 -0.0006401987 -1.2301643 -0.6445203 0.376637 -1.4779712 -0.60475993 2.4038522 0.19986318 0.61928236 1.1037399 -0.22789648 -1.9966617 0.69198394 -3.0905042 1.2769638 0.22114001 -1.4148129 1.3623263 0.8377134 -1.818891 -0.21355183 0.42954928 -0.84139097 1.0390027 -0.22952385 -0.43935472 1.0601319 -0.45136377 1.1139321 1.5592254 0.48397702 -0.922901 0.91016924 -0.13661005 1.3302784 -1.1677506 -0.470897 1.7587299 -3.3431458 -1.311525 -0.7748122 1.3058686 -1.4923037 2.1604333 2.9821262
91852fa3-423c-4159-886e-8909b961817f 2.6903086 -0.7236701 0.38988608 2.4103897 0.6524138 0.24289954 0.31915388 -0.38899982 -0.5649112 -0.31399933 -0.39434358 0.9035391 -1.4164108 -1.5276153 -4.5833898 -3.2202065 -0.5917056 -1.6135648 -1.2776175 1.8719518 -1.4661459 1.9788013 0.21690673 0.6264194 3.1273065 2.6653464 0.038954977 -0.32156402 0.5734155 0.477176 0.73463565 0.8094053 -0.2961384 -0.33957872 0.60873234 0.4587157 0.9074324 0.94369066 -1.4488164 -0.3212984 -1.6506524 1.7942083 0.6628102 3.9893882 0.8952726 -0.012449673 2.5757527 0.4332364 -1.3837186 0.8674639 -3.4373913 -3.2286503 -0.7413021 -1.2416238 -1.9282495 2.9097264 -0.19976668 1.3816333 0.015446985 -1.0377495 1.5299778 -0.037544224 1.6312842 1.1686591
df86209b-1f0d-4280-b637-494ef61d0eac 1.0195864 0.16384125 0.4081343 1.9775617 0.0850172 -1.0424277 0.6740275 -0.6581394 -0.51625055 -0.94170207 0.71337575 1.3624594 0.25431606 -1.4922191 -2.843927 -1.0294116 -0.7067754 -0.7588817 -1.804338 1.3139541 -2.0021315 -0.20402804 -0.41535294 -1.8130989 1.2570652 1.4857838 0.30014688 0.7094441 0.5015689 0.04259866 -0.62328565 1.0409667 -2.1299639 0.67168015 -0.20706455 -0.9640662 1.3278549 0.41671014 -1.6210853 0.26381055 0.05938425 -0.43159625 0.5254429 1.875699 0.5915502 -0.012447933 1.2139996 1.1147891 0.19617344 0.88435924 -1.8949598 -1.1811105 -0.84984463 0.63352865 -1.7297107 0.64799184 1.153686 -1.4318726 -1.2102077 -0.8730664 1.9277879 -1.19036 2.0201528 1.6755676
d1ff0616-4efa-42cd-b8a2-273e72fcde1b -0.049762044 0.93701273 0.56108075 0.12661068 -0.1962157 -1.5870273 1.4141794 -0.3756969 1.1316332 -1.9068003 0.9396272 0.95102006 1.707868 -0.1670134 -1.640753 -0.08841623 -0.6230154 -0.11168283 -0.7469035 2.0838506 -2.063209 -0.3134098 0.98559266 -2.509189 0.07005186 0.904099 -0.26515827 1.7362446 1.3375187 0.09373724 -0.2878628 0.36922824 -2.409496 0.70297813 0.22562328 -2.301523 0.21919982 -0.34925205 -1.9830979 0.041248992 0.781832 -1.0213387 0.3699128 0.9470377 0.10757236 1.9824132 0.6290593 1.3042165 0.1447416 0.011152726 -1.8523672 -0.12602817 -1.4364848 1.3707372 1.1210902 -0.3729031 2.3212998 -1.4943477 -0.3531537 0.5023334 1.3465886 -1.7400073 1.0564457 1.6287285
56ffb2a7-f45f-4e6c-bbfe-3d898a3358d8 -0.26615623 0.46319538 1.1783432 -2.1508756 0.26769075 -0.49424362 1.3644147 -0.478166 2.2510486 -2.1084747 0.06849137 -0.06351155 1.931979 1.6078874 -1.0476115 -0.066493064 -0.478187 -0.4459338 0.9116487 3.7360299 -1.6059263 0.6564131 2.7382705 -1.3015318 0.8315732 0.36777282 -1.1656458 1.5080584 2.060635 0.55463624 0.87446296 -0.47046024 -1.1377832 -0.2946713 0.7030632 -2.107567 -0.717918 -0.33834317 -1.383309 -0.45803276 -0.3217744 0.3124566 0.0933349 1.9640663 0.923717 3.164422 1.6082872 1.0848491 -0.52902347 -0.6858203 -2.7278066 -0.17497598 -1.3285592 0.5387968 4.577947 0.94152665 2.2985377 1.1172782 2.0991857 1.2284681 0.08787528 -0.68333167 -0.94667923 0.8210558
85bb0572-638f-4a8f-924f-0ff5a445eaa6 0.3116684 1.6871395 0.50643635 2.026645 0.3797846 -2.6262128 0.39792272 -0.060823906 0.17597984 -1.0764662 0.5806652 -0.18456265 1.5806799 -1.3453399 -0.3236854 -1.6210281 -0.26779708 0.0995851 -1.0088383 -0.8832416 -0.86521924 -0.46089113 -0.9003096 -0.75701946 -0.71064144 0.54891455 0.5811568 1.4276296 -0.2606271 0.63238865 -0.28353202 0.34856954 -1.8051894 -0.056858372 -0.5028758 -2.5072565 0.46203622 -0.37328595 0.07637337 1.36133 1.1724089 -1.1280608 -1.1667877 0.55844086 0.46711862 -0.6765646 0.56758875 1.3928875 -0.18210356 0.6059238 -0.03844114 1.5575436 -1.6067513 2.4017723 -0.44451728 -0.49049056 0.2565472 -2.363136 -1.1980675 0.78924483 1.621092 -1.2549958 0.46714175 1.2545135
fd8ee37a-691d-4ee0-bb66-8af44f4862c9 0.15398471 3.129514 1.2241366 2.5713696 1.5757008 -3.3950517 -0.88339454 0.41055724 0.31394103 -0.7364281 -0.5221619 -1.8483714 2.082057 -0.8129082 1.6025038 -3.6608894 0.09444298 0.23488851 0.23531282 -2.5332112 0.83448446 0.62104756 -0.883665 2.296542 -1.2931416 -0.2290686 1.1899506 1.9306848 -1.0409139 1.50694 0.10589317 -0.8108046 0.013087329 -1.6440214 -0.6407563 -3.2050416 -0.11727926 -0.850427 2.2517028 2.1432128 1.5469321 -0.46838692 -2.9902692 0.3625716 0.57025987 -2.4719536 1.3760604 0.92267567 -0.928507 1.034097 0.92481786 3.2665758 -1.6743702 2.8565688 0.41820028 -0.21496503 -1.5139141 -1.8302982 0.3825376 2.5233207 1.1241597 -0.6671987 -1.5841204 0.061876025
0c79b832-75de-4854-8154-d62774a8dfb8 0.02286346 -1.9206058 -1.8945512 -1.9965811 -1.1806759 0.28016487 0.25179642 2.500836 2.4436455 -1.4330257 3.1901484 1.0367204 1.5090015 -0.31027436 -0.69444937 2.6477525 -2.118849 -0.7690629 -0.72225887 1.6133311 -3.5110023 1.5436907 0.7353047 -2.4273474 -3.232746 1.4606878 -1.2526255 0.016527042 1.7441306 0.1516149 0.69283867 0.43874553 -3.9113474 1.4779228 -0.6571473 0.1137284 0.07893372 0.1707448 -1.6669871 -0.4661159 1.5809408 0.5385687 -1.1076093 -0.7336807 1.4245564 -2.4624245 -0.9306421 -0.27935687 2.5622363 -0.3783804 2.8874252 0.9798951 -1.2079581 1.574336 -1.6469849 0.0048862225 0.50120616 0.7784037 0.025142465 -0.6501316 2.8774147 2.968027 0.87287223 1.2862113
91504a10-f697-42a3-a779-f238b4955ea9 0.19109297 0.546172 -0.3636981 0.6745026 -0.6271018 -0.92746437 0.8542891 0.6690047 1.0937256 -1.350245 1.9027506 0.8539622 1.7163337 -1.352035 -1.5456995 1.07446 -1.2762369 -0.20337403 -1.6113826 0.960032 -2.4597576 -0.57601225 -0.28440908 -2.7176516 -0.95647 1.2044265 -0.6824841 1.2297351 1.090797 0.1326912 -0.3585154 1.1707255 -2.9901237 1.1402795 -0.43536675 -1.2048658 0.66336095 -0.1920144 -1.7522932 0.12915435 1.2948949 -1.0318204 0.31006885 0.031475835 0.33530536 -0.6095058 0.15756088 0.7810536 1.3389049 0.321843 0.70114565 0.6971943 -1.1348261 1.6310012 -1.5288674 -0.7655598 1.3037183 -1.8636509 -1.2829089 -0.28471 2.6545105 0.034890693 1.6132464 1.6266049
882aecb2-90c9-49b1-908d-c800bf22da5a 1.1906548 1.8230478 -0.26367018 0.9408851 0.28953534 -1.9209636 0.5092817 -0.15718113 -0.005975273 -1.1881088 1.5913866 1.0340738 1.9673085 -1.045096 -0.8363024 0.57335037 0.1838192 -1.759092 -1.6049851 0.93921196 -1.1252767 -0.4927141 -0.07708896 -1.7977499 -0.13053638 0.25240445 0.20675649 0.5198157 -0.58954626 -1.0740944 0.043750513 1.7400917 -2.8226733 0.98868334 -0.08255218 -1.3469827 1.6950912 -0.045407463 -1.2115153 0.9311865 0.9305441 -0.2998659 0.7912513 0.5417383 0.64507586 0.056837976 0.17148893 1.6779727 -0.17774726 -0.9382113 -0.6479046 0.73959184 0.4982847 0.12873691 -1.4708289 0.28951725 -0.42050403 -2.0726151 -0.6548834 0.5779204 1.5716509 -1.2164444 1.8542463 1.9218668
0e1de8f1-9909-4e45-a6a3-bffe95470275 2.814348 2.9413316 -0.827913 -0.8487121 1.8988023 -2.232933 -0.87023234 0.12876485 -0.0844672 -1.2423409 1.790252 1.1481769 2.9090617 0.017560791 0.74507755 0.53234726 1.3156506 -3.6647286 -1.0392712 1.5202341 0.65815336 0.47926217 0.5642761 -0.10576306 -0.22559011 -0.58285916 0.3957384 -0.47988537 -1.2159531 -1.8136771 1.5006635 2.3192456 -2.151908 0.096242934 0.78285384 -0.5581762 2.3001814 0.21137242 0.09869067 1.9395144 1.1505469 1.6130412 0.71963197 0.32238758 1.1357955 -1.8780327 -0.5831781 2.074984 -1.5397516 -2.9955518 -1.3263779 1.2565905 3.0779994 -2.0724196 -1.6397305 1.8675426 -3.5569177 -0.43848294 0.5977102 1.2465305 0.9143267 -0.7338216 1.323908 1.6866024
462e3264-1679-46ec-9647-03a5a4592fb7 -0.99104065 0.586365 -1.3614218 2.918443 1.8434448 -0.9297181 2.1223252 -0.85252184 -0.5186924 0.8084534 0.49124143 -0.16964504 3.2807477 3.9621835 0.74641794 -1.5522217 0.41108721 -0.68258953 -0.6945136 -0.7910949 2.2863362 0.92289376 1.6727524 -0.88796914 0.20553505 0.57937056 0.8527506 1.5491707 0.025164999 -3.6728618 -0.20942816 -0.745694 0.26863864 1.0547806 -2.1342385 -0.16908307 -1.087342 -1.7291567 -1.4588946 -0.20332165 0.12266655 0.5930547 0.06006499 -1.4834752 0.330688 -0.037794203 1.8588622 0.34781146 -0.35970685 0.31482854 0.43031162 0.6662253 -0.16464506 0.10059746 2.3896573 -0.43638685 -0.16581625 -1.0656518 1.5091513 -1.2018104 -2.2871277 -0.43748152 1.5528955 0.5553728
9a658237-b2d8-43bb-9c72-a81a0fc4029c 0.29964718 -0.6231239 -0.39179412 0.054421265 -2.6634986 -2.4286942 -0.71510553 -0.18505447 -1.0757619 1.1934575 -0.28053644 0.5294989 -2.1583402 -1.8959973 1.183063 -1.5219995 1.0543519 -1.0532231 1.657521 -0.878294 -1.7769538 -2.3511493 0.5720583 1.8386322 -0.760332 1.6149685 2.3308616 3.002156 1.3634907 -2.4145296 -2.1637287 2.5411894 -0.6372947 0.51129454 0.35930717 -2.0305383 -0.30107272 1.7290008 -0.8946042 4.296321 -0.68860686 2.0772507 -0.11942495 1.443716 1.3602785 -2.2922466 -3.126308 -1.4098072 0.04234432 0.2865475 -0.44221836 -2.1987967 1.2296517 -3.054617 1.507725 1.769697 2.6286626 0.06931596 0.2431305 0.47172713 -3.4916499 -1.6220474 -1.1416271 -0.10742612
426457b6-ab89-4f2d-970e-eef3b2f64e3e -0.022604711 2.1923459 -0.4361003 3.0442896 0.15623832 -0.6954348 3.266733 -2.0372407 1.6120298 1.3065926 0.6064339 -1.0538492 1.8851476 3.8336725 -0.6670133 -0.2595552 -0.8376551 -0.03868876 -0.49501652 0.07168742 0.3075824 1.0711308 1.2283459 -1.1613488 -0.23221742 0.5347997 0.70246756 3.264115 -0.63112426 -1.6100875 -0.14944176 -0.19685623 0.08463913 1.9657191 -0.61294264 0.2183735 1.5590794 -0.5460719 -3.1588714 0.21438617 1.0015951 1.3836145 -0.18216306 -1.2377559 -1.3771492 -1.1125553 -0.2438539 -1.5490593 -1.1836591 1.2712241 0.7234072 0.11517495 0.3965388 0.042035196 1.0209279 0.28750473 -0.17772602 -1.8659887 -0.62218386 -1.0979086 -2.0007389 -0.15428503 0.19460282 1.9656864
b005a96f-ebb2-4bb9-a030-b4e59e12918c -4.245566 -4.2898173 -0.9060685 -3.3146343 2.7376902 0.8882281 -1.5540334 -3.0597098 0.09958955 -1.4182435 -0.8734033 -3.1487236 0.46297267 0.82942545 0.808563 -0.13518251 3.2947717 1.779078 4.9751945 -0.3768006 0.9445709 0.931217 0.19247527 1.159853 1.2775675 -0.60450643 2.785578 -3.4275837 -2.6459172 2.9471557 0.3300516 -2.2125916 -2.0335228 -1.6472417 -1.0443816 -0.8930278 0.5231775 -1.7508793 0.8907186 -2.1569266 -0.7148616 3.54768 -1.8039056 -1.783726 0.55204725 0.99945146 -4.890631 0.72989225 3.429541 2.0469172 -3.421357 0.87330157 -0.6846211 -0.30091557 -0.62296975 -0.12239137 -1.4561923 -2.3109548 -1.2390537 -4.1222863 -1.6816204 -0.40444544 -0.90355706 2.4238477
097e75a6-fa8b-455e-8449-f3855f78285b -1.0620742 -4.3137383 -3.2903562 -0.9865279 1.0486957 -0.85374624 -2.5126495 -2.6690698 -2.6262798 -1.0127841 -0.6354215 1.7259346 0.8859034 1.4545817 1.2151256 -0.0578428 -0.87014765 1.6173763 3.9701445 -1.7739854 0.041750025 1.9397396 1.352105 2.6241808 3.2774746 -1.9887215 2.8379767 -1.9511745 -5.7646275 1.1283907 -5.1317935 0.20552252 -1.8874376 0.32619157 -0.4944415 4.0244164 2.479418 1.246533 2.9082048 -2.5827298 -4.60622 0.6913464 -1.4144574 1.1387457 2.794467 -1.0738242 -0.056696657 0.4887458 1.1615826 1.4866446 -4.172144 1.7629844 0.26509887 -1.6689457 -0.21167554 0.74950093 -1.8568046 0.37911168 -0.41449344 -0.758944 -1.8391402 -1.8169303 0.15063742 -0.38366455
9ca1a27b-af7b-44d2-b10d-0a6d0e3ff53d -2.6433697 -3.7379868 -1.6424079 1.8835318 0.4029771 -0.55299705 -1.251166 -2.0325634 -2.9579308 -1.2049732 -3.0243855 0.3849346 -1.0112237 -1.476403 3.28862 0.1525442 1.7863743 2.1924725 -0.17212299 -1.8277862 1.7999375 0.95868725 -0.6461543 -1.2799891 1.4810259 1.2436321 4.427189 -4.5159793 -2.2299342 2.1618736 -1.2600478 -3.4785135 0.25219852 -2.4407542 -0.5358022 -0.14411145 0.34491593 -1.1379142 2.874861 -0.05866306 -3.2397325 -0.7328341 -0.84301 0.83389246 2.8606036 1.3400171 -0.53263324 0.14171997 3.8476758 1.7064949 -2.978166 4.2043962 -1.4857115 -1.2620659 -0.44738784 3.8152323 -2.7574043 2.283906 -2.6422682 0.95608777 -2.5813618 -1.6008058 -2.0021727 0.76994586
83155b50-418e-437c-9389-cf0e1302900f -1.3749148 -0.090908706 -0.96888167 -0.26826888 -0.7106431 -0.5146402 -0.9089217 -1.3139558 2.6008317 1.4060692 1.0962026 0.57587385 -2.0189567 -0.5267977 0.8145608 -0.7551004 1.1024683 1.9827368 -2.0500817 3.0215857 -0.054021608 -0.56857586 0.010690577 -1.8141849 2.5789392 2.0911427 -0.046071544 0.17331183 -1.2238159 0.68121165 0.8102628 2.0443122 -1.4231969 -0.6412607 1.8716934 -0.70193857 -2.3386292 0.14333686 0.9419682 2.4469907 -0.017484272 0.7559414 -0.19895054 -0.8076178 2.287251 -0.39879885 -0.5201432 1.8119494 -0.26617318 -1.5711728 0.057287592 0.52071375 1.2928042 1.2818259 1.9288791 1.5685757 2.0203183 -1.6924465 -0.14240512 -0.60886836 1.1668582 1.1145147 0.072567664 -1.1287907
86f14e34-ba09-4e35-913e-af9e213cff2e -1.241841 -3.6033165 -1.6337852 -2.3295317 -0.20126502 -1.1432948 -0.9997263 -0.8061299 -3.3518257 -1.0648955 -1.3046814 -1.2301384 0.22915906 1.1365823 2.6321254 -0.27143902 1.3701373 2.1541421 1.9796317 -1.3169845 0.10821968 1.1131344 -1.9210687 0.71831256 1.6656009 0.79916406 2.0923219 -2.035767 -4.2240443 0.4352589 -2.4517508 -1.8682196 -1.9203044 -1.4503452 -0.424252 -1.2794067 -0.89294577 0.026568422 1.3388917 0.81934035 -2.0169206 -0.012498116 0.60021675 0.05348556 2.556839 1.3596989 -1.7297574 0.527568 0.61493784 0.6250419 -0.28824186 2.9398391 -1.694905 -0.91880065 -0.026886385 0.20809829 0.13997841 1.603657 -2.8621087 -0.5721025 0.19249474 -1.925808 -0.9746624 0.8773751
d78aeaf6-1747-4d72-9619-f16efb4dd89d 0.4704329 -0.58010954 0.40907416 -0.21102412 -0.42910808 0.64400345 -1.7177591 3.5198402 0.61206317 -1.6131722 -1.1721443 0.6062071 1.4272915 0.6848182 -2.1079721 -3.2836163 2.1180255 0.4021174 -0.44577953 0.21384256 3.6372063 -0.4207416 2.8462822 0.99900115 -1.6599925 3.0457027 0.5476485 -0.82075584 3.096704 1.7043911 1.2435023 1.0379249 -1.0629879 -1.7187816 -0.35138702 -0.6932232 -4.534426 -1.6059068 -0.14427933 0.9307223 0.2827352 -0.8118549 2.228995 -0.019035377 -2.2432168 -0.4882302 -0.14189819 1.9574764 0.52248603 0.56129146 1.9371184 1.9882069 -1.5362307 -3.1499066 0.48599574 -1.7281802 0.6480003 -0.128825 -0.40902853 0.17613825 -1.9630102 -0.54813975 0.35211164 -1.1211594
6e2a4012-2448-47fd-b7ec-a47396e4b114 1.7216967 -2.259283 0.09367888 -0.6190746 -0.020550035 0.12534076 -1.3277535 2.139466 1.2788775 -1.2509245 -1.7052951 1.3810674 1.2021393 -0.5304157 -0.33766976 -1.6560055 1.6567705 -2.0020173 -0.029299937 -1.3051355 1.4598852 -1.507288 1.1525784 1.5236132 -1.1918293 -0.9055186 -1.1637249 -1.9445109 1.9916842 2.7433617 2.9037693 0.66542554 -0.3536208 -1.0707644 1.0909203 -4.057435 -2.7215862 -2.4790523 -0.8299156 -0.17158295 -1.6755565 0.5123525 1.7562795 -0.36280608 -2.7225852 2.4065902 2.3860512 2.3851871 0.4684107 -0.40469313 2.3363183 3.048458 -2.0616062 -1.724545 0.3731555 -1.1625376 0.14510888 -1.2102898 0.1024803 -0.032473262 -1.9128803 -1.5643078 1.2353694 0.7129581
f49b3f00-d489-4726-b116-4157cfb6a183 1.8679204 3.3428488 -2.840457 -0.28445733 2.4692633 1.9292741 2.4253917 2.3486402 -1.2948657 -3.71927 -0.22430989 0.68384814 3.6616747 -1.0828519 0.6217502 1.2116914 -0.235737 3.4063985 0.8845635 -3.247251 1.0845146 -1.2446557 1.0474571 -0.59173775 2.1407902 0.8032543 -1.5189004 -1.6599461 -1.9917581 -0.100891426 1.2302831 0.8514357 2.284294 1.3521018 0.88915485 4.315036 0.096759 0.41997814 1.0416297 -2.8400474 0.57892966 -4.209101 -1.7934992 0.5029511 0.46875587 0.8023795 -1.676565 1.9163715 1.7905957 -0.8848899 -1.8341664 0.48108706 -0.7355323 1.2008848 -0.1883106 -0.258907 -1.4249942 -1.7957826 -0.42607546 0.8694748 0.46545377 -0.31168047 -0.938773 0.62618804
e8254fb0-f2d9-45b1-bdc4-d17cbba11bef -0.7695452 1.8916402 -2.189502 1.846269 -1.0768597 0.38565215 0.13752785 1.0794832 0.5470014 -1.1444591 -1.0307724 1.8093863 1.9438962 -1.6003875 -0.7755838 0.15027796 0.86226696 1.6640749 2.0648665 0.12792408 -0.81757617 0.61455995 2.1452694 2.232238 -0.055607513 1.7915311 0.6159339 1.8058227 0.7303455 -0.18892106 0.17128348 -0.18389691 -2.0277708 1.7178792 3.0736356 0.5191713 1.7037337 -5.018636 -0.73629576 -2.1553352 -0.1762977 2.0688982 -0.42277676 -1.3043768 1.8949138 -2.4345362 -2.5101054 -2.863213 2.3439283 2.4639814 -0.11835824 1.6611384 1.6946241 0.018682979 1.0122937 -0.8832083 -2.7456098 -2.48405 -1.6293322 1.7482435 -0.60823977 1.9449589 -0.62772244 0.21355742
09c874bc-8b98-4108-bc1d-68ddeeee1c58 0.5545298 0.3957274 0.98911315 -0.29504302 -0.19688882 -1.167203 0.6749743 0.18389322 0.7822256 -0.7785378 0.48698086 1.088078 0.7320739 -1.1109776 -0.8859645 -0.003050938 0.050914418 0.11985092 -0.6015813 0.2897518 -0.2831376 -1.0315868 -0.46816504 -0.44458574 -0.16505425 -0.22051221 -0.059587408 1.6939682 -0.6087062 0.05140651 -0.18251576 0.4678316 -1.5357546 0.8532504 -0.5868871 -1.3377599 -0.13873391 -0.4628002 -0.15940772 0.22406869 0.54284364 0.19475214 0.74337596 0.944557 0.44892576 0.9830609 -0.97624063 0.9228152 0.3629805 0.2593563 -0.38393417 0.3225411 0.039838083 1.0723374 -0.7285913 0.45452407 0.7008679 -1.3625612 -1.7624669 0.0087923035 0.86585355 -0.5348756 0.648027 0.061386522
bced106c-3ee7-434c-89dc-0007163b5425 0.050650675 1.1272535 -0.102931835 0.20487714 -0.30913386 -0.6151811 0.5882302 -0.2876621 0.48576948 -1.0671164 0.24499178 0.71440095 0.47466353 -0.6286102 -1.1784099 -0.5814468 -0.16730224 0.57511735 -1.2953349 1.1773344 0.10082469 -1.2778769 -0.086087555 -1.629115 -0.4044217 0.93482566 -0.38650492 1.1485037 0.5639289 0.6750539 -0.33661872 0.065051146 -0.9945153 0.2888803 0.33228052 -0.82673216 -0.008832114 0.4096626 -1.3649632 -0.16026644 0.5655431 -0.5607182 0.0985908 0.52693605 0.35294196 0.25170308 0.5276377 0.63581246 0.10293669 1.3329252 0.011287053 0.40038696 -0.42155823 1.9753494 -0.9867966 -0.63917947 0.43508464 -1.4896381 -1.5674242 -0.26894724 0.6221272 -1.0818176 0.67905986 0.75510657
aa055bd6-fde1-4471-8ac2-ac86241b4898 1.3864782 2.0935 -1.6368002 0.6563633 -0.07444847 2.416544 1.3658013 0.54327404 -1.9834319 -2.2532957 0.0703706 1.5310299 2.98934 -0.4785797 0.6258421 0.92924124 -0.4387823 3.5292811 1.6466087 -1.261139 0.52212286 -1.1408339 1.6700634 -0.7084573 0.5026065 1.6983292 -0.16627383 -0.8069143 0.67882425 -0.81755036 1.4366733 1.4379783 -0.35962692 0.554984 0.90598017 2.3503778 0.13041583 -2.198335 1.1681209 -0.5477832 0.17096025 -2.299386 -1.5894854 -0.31956393 1.4692307 -1.3286322 -0.90652895 -0.19186223 2.0204978 0.45987594 0.6168646 2.1338794 -0.49118757 1.8173504 1.4848149 0.50424665 -1.1420802 -1.9848194 -0.73711246 1.0327842 0.5983987 -0.21543324 -0.37194437 0.99279207
05a3f0c1-4a52-4bdc-a345-a35e1aab7031 0.27630323 0.2602364 0.26751006 1.0373868 -0.5707272 -0.81484467 0.16933872 -0.836712 0.8143981 -0.3728072 1.4598185 1.3020303 1.304229 -0.6058871 -0.6209983 -0.6593616 -0.28540397 -0.117321 -0.1811989 -0.49491662 -0.9974578 -0.5825201 -0.35776287 -0.4191371 -0.18263723 0.21768741 0.18010089 0.5410058 -0.029376727 0.039029133 0.1836922 0.97136295 -1.2035222 0.5229276 0.124578334 -0.698778 1.2313774 0.23082775 -0.9760543 -0.12022544 0.9098615 -0.56632715 -0.27422088 0.8369989 0.51084673 -0.1225558 0.12639184 1.3076537 -0.035946656 -0.07335803 -0.2897706 0.05575055 -0.7685386 1.2687998 -1.058736 -0.16257209 1.6908774 -1.5534809 -1.0362961 -0.62023365 0.38444155 -0.10785962 1.3048044 0.43148616
7394a851-df93-4968-8fd6-969713c82733 0.30530348 0.21262194 0.27457812 1.0186018 -0.5775985 -0.7657442 0.18547972 -0.7753994 0.81728464 -0.3481515 1.408911 1.239102 1.2350465 -0.56734586 -0.5941371 -0.62381804 -0.2609808 -0.12891272 -0.19174539 -0.43679756 -0.9734315 -0.5092531 -0.34915543 -0.39956054 -0.15941654 0.2469234 0.20822003 0.587465 -0.07100281 0.031829827 0.2166018 0.9621999 -1.1709585 0.58551955 0.09189713 -0.71330786 1.1945076 0.24720918 -0.94502723 -0.10466629 0.8785134 -0.55402803 -0.24709573 0.78421175 0.53210485 -0.11207693 0.16672127 1.2399224 -0.043255016 -0.0909146 -0.2895606 0.040848088 -0.6903631 1.2354462 -0.9937114 -0.14434895 1.6230834 -1.498737 -1.0258777 -0.5895034 0.35957095 -0.15479766 1.2545276 0.42771193
90e654a0-0077-4637-8721-1a5c31b85be9 -0.14100042 1.947823 -2.7715428 0.7131208 -0.58541214 2.1728199 1.985864 0.5375663 -0.7031838 -3.3826275 0.98783636 0.533199 3.4177701 -1.4745332 -0.1565852 0.95525295 -0.49834457 1.9125785 0.5246871 -0.9250339 -0.012665156 -0.4975841 1.9900558 1.1551942 0.38116267 1.917449 0.9820911 0.9259838 -0.055055358 -0.88401985 -1.3029568 -0.3971209 -0.23393106 1.0955967 1.558902 2.242373 1.4969527 -2.3967986 0.56278855 -2.0108373 1.9314921 -0.31550497 -2.2132673 -1.3826874 1.2540088 -1.3269392 -1.7891574 -1.3028702 1.3401382 1.8884994 -1.0226146 0.28135672 0.4818086 0.6127469 0.2317369 -1.1407938 -1.9269176 -2.055447 0.27596384 0.74512774 -0.5245733 1.6911736 0.28071257 0.040709507
834a7921-260b-4061-9de1-edda3e998c68 0.57640636 0.40047178 0.96927816 -0.2527678 -0.25165674 -1.1901444 0.71055216 0.20568295 0.81434876 -0.8438505 0.5407327 1.1802496 0.7765609 -1.1152334 -0.94373447 -0.08523316 0.14263546 0.09059802 -0.5885484 0.27065137 -0.2976471 -1.0335505 -0.50549716 -0.4788718 -0.18497947 -0.18246223 0.0031823153 1.7755127 -0.63097644 0.050712623 -0.1804732 0.5142285 -1.6743559 0.9465604 -0.6113462 -1.4521936 -0.096233204 -0.39619204 -0.2585334 0.23774593 0.5411916 0.17658786 0.6942441 0.95802325 0.5266043 0.9845217 -1.0809547 1.0911254 0.36823452 0.28467673 -0.46183935 0.34349725 -0.018101532 1.0858502 -0.74405015 0.45585865 0.70038396 -1.4791746 -1.8039658 -0.029795952 0.7956355 -0.59753394 0.6612084 0.10730457
a14072ba-e2d1-47fa-93d4-e9cb023a3450 0.0017272313 1.1152692 -0.12046178 0.218389 -0.28661615 -0.62879074 0.5773149 -0.28394675 0.44918647 -1.0471488 0.22978856 0.7426895 0.45616376 -0.5943075 -1.1368426 -0.5740528 -0.13460515 0.5832138 -1.261294 1.115605 0.09665633 -1.2227764 -0.08298553 -1.5678622 -0.34995985 0.8717694 -0.35996473 1.1160156 0.48042202 0.648976 -0.31037667 0.011130543 -0.95230764 0.24107632 0.32149586 -0.78043824 -0.014427844 0.37934563 -1.3346494 -0.21726446 0.4950639 -0.5633558 0.06595508 0.51501024 0.31797352 0.22088252 0.48811054 0.6233426 0.1452019 1.2790504 -0.044902623 0.36720052 -0.41584304 1.8573232 -0.9034446 -0.6117189 0.38737604 -1.4872451 -1.5028915 -0.30691245 0.5736275 -1.0290291 0.67593217 0.6919966
421504cb-63c4-44fb-94ec-5d0129e1748c -0.36297387 2.1394362 -1.157829 1.7228347 0.15550673 -0.4488248 2.1460233 3.8456268 -0.1841625 -0.65146613 0.47442365 1.5065535 0.4340058 -1.0197828 -1.2397248 0.08949334 1.1023043 0.6793644 0.97411966 0.90247893 0.30643052 -0.23480298 0.18103674 0.7649165 1.1216813 1.4184366 -1.7995474 0.8493273 -2.0793016 -0.4707465 -1.988197 0.96086663 -0.059555292 -1.17139 -1.3184612 -1.269743 -2.2827184 0.44960627 0.23714599 0.29074985 -0.94967896 1.9305785 1.7383136 0.833046 1.8746159 -2.1848876 -2.2703936 1.2500378 -2.165819 -1.4637661 -1.4151556 1.9151334 -0.19123784 -0.34071505 -1.9386214 0.89443123 0.8615177 -1.5353771 0.53766435 -1.8154415 -1.7068083 -1.3135306 -0.65783644 -2.573362
